FANN_FLO_2.1
Network Description:
	num_layers=2
	num_inputs=256
	Layer Description:
		num_neurons=1
		type=connected_any_any
		Neuron Description:
			num_outputs=150
			type=connected_any_any
	Layer Description:
		num_neurons=1
		type=connected_any_any
		Neuron Description:
			num_outputs=30
			type=connected_any_any
Network Data:
	learning_rate=0.700000
	connection_rate=0.000000
	network_type=0
	learning_momentum=0.000000
	training_algorithm=2
	train_error_function=1
	train_stop_function=0
	cascade_output_change_fraction=0.010000
	quickprop_decay=-0.000100
	quickprop_mu=1.750000
	rprop_increase_factor=1.200000
	rprop_decrease_factor=0.500000
	rprop_delta_min=0.000000
	rprop_delta_max=50.000000
	rprop_delta_zero=0.100000
	cascade_output_stagnation_epochs=12
	cascade_candidate_change_fraction=0.010000
	cascade_candidate_stagnation_epochs=12
	cascade_max_out_epochs=150
	cascade_min_out_epochs=50
	cascade_max_cand_epochs=150
	cascade_min_cand_epochs=50
	cascade_num_candidate_groups=2
	bit_fail_limit=3.49999994039535522461e-01
	cascade_candidate_limit=1.00000000000000000000e+03
	cascade_weight_multiplier=4.00000005960464477539e-01
	cascade_activation_functions_count=10
	cascade_activation_functions=3 5 7 8 10 11 14 15 16 17 
	cascade_activation_steepnesses_count=4
	cascade_activation_steepnesses=2.50000000000000000000e-01 5.00000000000000000000e-01 7.50000000000000000000e-01 1.00000000000000000000e+00 
	scale_included=0
	Layer data:
		Neuron Data
			activation_function=3
			activation_steepness=5.00000000000000000000e-01
			weights=8.28131213784217834473e-02 -3.01783293485641479492e-01 6.85649439692497253418e-02 -2.79169291257858276367e-01 6.41920417547225952148e-02 1.57877400517463684082e-01 7.83040151000022888184e-02 2.47234199196100234985e-02 1.48569107055664062500e-01 -1.30517706274986267090e-01 2.99075573682785034180e-01 -1.62558063864707946777e-01 3.75478178262710571289e-01 -3.17152917385101318359e-01 -2.41011217236518859863e-01 -3.13026383519172668457e-02 1.13807946443557739258e-01 3.39646078646183013916e-02 -5.31370997428894042969e-01 1.71364799141883850098e-01 8.65206569433212280273e-02 1.26331478357315063477e-01 4.82251048088073730469e-01 9.87383574247360229492e-02 -1.06623089313507080078e+00 -3.15722554922103881836e-01 -8.65766629576683044434e-02 6.42388820648193359375e-01 -1.87619477510452270508e-01 4.39830198884010314941e-02 1.07415266335010528564e-01 5.76368719339370727539e-02 1.17642469704151153564e-01 -1.70523658394813537598e-01 1.77057310938835144043e-01 -2.02952668070793151855e-01 -1.87094226479530334473e-01 2.53738582134246826172e-01 -6.12339600920677185059e-02 -2.84577876329421997070e-01 4.34854954481124877930e-01 5.25100648403167724609e-01 -4.09976840019226074219e-01 7.30673015117645263672e-01 2.49076206237077713013e-02 -9.13799647241830825806e-03 2.91557647287845611572e-02 1.50597646832466125488e-01 -7.83470198512077331543e-02 2.51004528254270553589e-02 1.23258024454116821289e-01 6.46946430206298828125e-02 -2.79238790273666381836e-01 -3.92857849597930908203e-01 -7.35052376985549926758e-02 3.41337770223617553711e-01 1.84254482388496398926e-01 8.42419490218162536621e-02 5.49165427684783935547e-01 -7.58663341403007507324e-02 7.94932961463928222656e-01 1.91887617111206054688e-01 -1.31474256515502929688e-01 2.61686265468597412109e-01 -3.13263595104217529297e-01 -1.50787323713302612305e-01 -4.90471720695495605469e-02 -3.64494532346725463867e-01 -1.21327415108680725098e-02 -3.19890752434730529785e-02 1.50871649384498596191e-01 -1.52856186032295227051e-01 -5.11964000761508941650e-02 -6.63522407412528991699e-02 -1.84140771627426147461e-01 6.98708519339561462402e-02 -2.70341653376817703247e-02 -4.92719590663909912109e-01 1.80289238691329956055e-01 -2.23847717046737670898e-01 3.72247658669948577881e-02 -2.72079318761825561523e-01 -1.78908869624137878418e-01 5.57514056563377380371e-02 -6.92246407270431518555e-02 -3.82786959409713745117e-01 8.60572829842567443848e-02 3.67802262306213378906e-01 3.97417932748794555664e-01 6.31528794765472412109e-01 5.01348018646240234375e-01 -5.26211321353912353516e-01 -1.23504662513732910156e+00 9.95860900729894638062e-03 -2.41418480873107910156e-01 -8.18296149373054504395e-02 -7.64550715684890747070e-02 2.51370277255773544312e-02 -3.16294074058532714844e-01 -2.58484959602355957031e-01 -5.93506217002868652344e-01 -2.47222855687141418457e-01 4.40988764166831970215e-02 1.53439000248908996582e-01 -7.42052644491195678711e-02 4.67627085745334625244e-02 4.79241788387298583984e-01 -4.90541130304336547852e-01 -5.00271677970886230469e-01 -4.53219324350357055664e-01 1.41361966729164123535e-01 -4.40262891352176666260e-02 2.39596441388130187988e-01 9.29317027330398559570e-02 6.22037529945373535156e-01 3.58528971672058105469e-01 -5.16932755708694458008e-02 1.32952220737934112549e-02 7.04877227544784545898e-02 1.20721727609634399414e-01 6.62413656711578369141e-01 9.45085585117340087891e-02 2.29706630110740661621e-01 -3.35120260715484619141e-01 -4.99637752771377563477e-01 1.61644443869590759277e-01 -6.98090717196464538574e-02 -7.84729607403278350830e-03 -7.33707547187805175781e-02 7.18227624893188476562e-02 -2.45137661695480346680e-01 2.06574290990829467773e-01 -6.09730720520019531250e-01 -2.80669648200273513794e-02 -1.96927741169929504395e-01 -6.22114419937133789062e-01 -7.56780803203582763672e-01 -2.34069451689720153809e-02 -4.43072989583015441895e-02 3.29560875892639160156e-01 1.53789505362510681152e-01 2.72709708660840988159e-02 4.07184250652790069580e-02 -3.84975820779800415039e-02 -2.08319514989852905273e-01 -1.53821364045143127441e-01 -5.81501722335815429688e-01 1.74695000052452087402e-01 6.71352148056030273438e-01 -2.60298550128936767578e-01 2.15281367301940917969e-01 -3.46242994070053100586e-01 -1.63896173238754272461e-01 5.56051265448331832886e-03 3.97678673267364501953e-01 4.26790446043014526367e-01 4.77381974458694458008e-01 3.93038727343082427979e-02 -4.17306460440158843994e-02 -1.30369039252400398254e-02 1.81615307927131652832e-01 3.00934631377458572388e-02 4.88611578941345214844e-01 -3.37350994348526000977e-01 -6.37157380580902099609e-01 1.10720656812191009521e-02 -6.13263130187988281250e-01 -6.12148083746433258057e-02 1.26216277480125427246e-01 4.33345288038253784180e-02 2.77981996536254882812e-01 1.02927625179290771484e-01 5.75456321239471435547e-01 7.32981935143470764160e-02 9.23149436712265014648e-02 -4.36394251883029937744e-02 -4.97557930648326873779e-02 -3.24705988168716430664e-01 -8.13625603914260864258e-02 4.09172832965850830078e-01 -1.78311318159103393555e-01 -4.07756507396697998047e-01 -6.72290563583374023438e-01 -2.71618723869323730469e-01 1.32010549306869506836e-01 -9.10613238811492919922e-02 3.48824173212051391602e-01 7.44402408599853515625e-02 -3.29480022192001342773e-02 3.79451185464859008789e-01 -1.09519936144351959229e-01 -5.41855134069919586182e-02 -1.47282183170318603516e-02 -1.91471859812736511230e-01 1.97860047221183776855e-01 -3.26090931892395019531e-01 -8.58091376721858978271e-03 -2.24296554923057556152e-01 -3.68519425392150878906e-02 -1.87752321362495422363e-01 4.27928596735000610352e-01 1.05980560183525085449e-01 4.67671155929565429688e-02 -2.64512058347463607788e-02 1.91656872630119323730e-01 -9.63291078805923461914e-02 1.31264120340347290039e-01 5.29103502631187438965e-02 -1.05510383844375610352e-01 -3.93871143460273742676e-02 6.27519264817237854004e-02 1.33780717849731445312e-01 4.29655551910400390625e-01 7.05831944942474365234e-01 5.73858857154846191406e-01 1.70636966824531555176e-01 2.23780959844589233398e-01 4.57800865173339843750e-01 -1.54620530083775520325e-02 -6.29015918821096420288e-03 -2.45371729135513305664e-01 1.33355110883712768555e-01 -2.96548426151275634766e-01 4.95635345578193664551e-03 -3.27810138463973999023e-01 2.82092541456222534180e-01 -2.07553356885910034180e-02 -1.54404699802398681641e-01 2.06372544169425964355e-01 -2.82186180353164672852e-01 1.39360716566443443298e-02 -1.96207106113433837891e-01 6.18807272985577583313e-03 1.77991222590208053589e-02 -2.20021501183509826660e-01 2.74967432022094726562e-01 -3.45968008041381835938e-01 -2.98695713281631469727e-02 -7.48476199805736541748e-03 -1.92440554499626159668e-01 -5.91366216540336608887e-02 1.12825140357017517090e-01 6.10234327614307403564e-02 7.85034745931625366211e-02 -4.78939227759838104248e-02 -4.02223289012908935547e-01 2.42512047290802001953e-01 -4.15551841259002685547e-01 1.74663122743368148804e-02 3.12646448612213134766e-01 1.76449969410896301270e-01 2.14944422245025634766e-01 1.49202257394790649414e-01 -1.48474648594856262207e-02 -2.54134804010391235352e-01 1.40413763001561164856e-02 -9.51297283172607421875e-02 2.08780542016029357910e-02 -7.10966289043426513672e-02 7.54074677824974060059e-02 4.33349497616291046143e-02 9.50207635760307312012e-02 -8.35063308477401733398e-02 -6.92956000566482543945e-02 4.55159991979598999023e-02 -6.76364451646804809570e-02 -5.94247840344905853271e-02 -5.13236969709396362305e-02 -8.07153061032295227051e-02 -2.81652770936489105225e-02 5.25441393256187438965e-02 1.01410657167434692383e-01 -1.70458480715751647949e-02 -3.85184958577156066895e-02 3.86469662189483642578e-02 -4.61442060768604278564e-02 4.38448265194892883301e-02 2.19180732965469360352e-02 1.70811116695404052734e-02 -6.45556524395942687988e-02 -5.67339472472667694092e-02 -9.60681959986686706543e-02 -4.15598861873149871826e-02 8.76749977469444274902e-02 -7.08894953131675720215e-02 7.02959522604942321777e-02 -7.80920460820198059082e-02 -3.36122587323188781738e-02 2.31348071247339248657e-02 -5.99459111690521240234e-02 7.43001028895378112793e-02 -9.58561971783638000488e-02 8.77270773053169250488e-02 -4.88010197877883911133e-02 -4.92553710937500000000e-02 -1.10074587166309356689e-01 -4.93371672928333282471e-02 4.41510528326034545898e-02 8.49751681089401245117e-02 5.56408874690532684326e-02 5.72684705257415771484e-02 4.25282754004001617432e-02 4.02781553566455841064e-02 2.14186627417802810669e-02 -7.06082582473754882812e-02 1.58593971282243728638e-02 -7.41195902228355407715e-02 -2.09310930222272872925e-02 2.46669426560401916504e-02 -5.18741086125373840332e-02 5.32435290515422821045e-02 2.50145476311445236206e-02 3.64247448742389678955e-02 -8.74765100888907909393e-04 -5.98088130354881286621e-02 2.50247437506914138794e-02 -7.33074843883514404297e-02 -6.09364025294780731201e-02 -1.68363738339394330978e-03 6.80903941392898559570e-02 6.75844848155975341797e-02 1.18942605331540107727e-02 -1.35841518640518188477e-02 -3.98318506777286529541e-02 -7.52676874399185180664e-02 4.77818027138710021973e-03 -2.74004656821489334106e-02 2.74765938520431518555e-02 6.34288936853408813477e-02 -3.32581847906112670898e-02 -6.64946436882019042969e-02 -3.77746932208538055420e-02 -2.68028881400823593140e-02 -7.38226948305964469910e-03 -4.10284893587231636047e-03 -2.57545174099504947662e-03 -4.62158843874931335449e-02 -9.08902138471603393555e-02 -1.48943113163113594055e-02 -5.31999878585338592529e-02 3.92694287002086639404e-02 2.84355022013187408447e-02 5.58927468955516815186e-02 5.67652769386768341064e-02 1.01097822189331054688e-02 8.70275422930717468262e-02 -1.56418345868587493896e-02 7.13872984051704406738e-02 -3.59649956226348876953e-02 -8.82937852293252944946e-03 6.67225616052746772766e-03 2.07702219486236572266e-02 1.22470427304506301880e-02 3.33039611577987670898e-02 9.88794043660163879395e-02 -7.40933343768119812012e-02 2.43924483656883239746e-02 -3.84046882390975952148e-02 5.24183996021747589111e-02 2.58377077989280223846e-03 8.06174427270889282227e-02 -9.94407013058662414551e-02 -6.64228647947311401367e-02 3.27534526586532592773e-02 3.02607845515012741089e-03 8.55662822723388671875e-02 -2.42946576327085494995e-02 1.01036854088306427002e-01 -6.73708245158195495605e-02 4.66592647135257720947e-02 2.33124941587448120117e-02 -2.13051196187734603882e-02 5.76459951698780059814e-02 -7.88234919309616088867e-02 -6.81938081979751586914e-02 3.64708676934242248535e-02 4.94607202708721160889e-02 -2.97446432523429393768e-03 9.55806579440832138062e-03 7.77680128812789916992e-02 9.68451052904129028320e-02 2.12291236966848373413e-02 -6.84888660907745361328e-02 4.12295348942279815674e-02 -5.06830029189586639404e-02 -1.29635483026504516602e-01 -3.68875078856945037842e-02 -8.70024040341377258301e-02 -7.82768055796623229980e-02 8.80635827779769897461e-02 4.22092080116271972656e-02 2.28052735328674316406e-02 -5.32722026109695434570e-02 -1.06734015047550201416e-01 1.43061764538288116455e-02 1.41996899619698524475e-02 -9.78445485234260559082e-02 5.54056800901889801025e-02 -5.80075336620211601257e-03 -6.98069632053375244141e-02 -1.89563482999801635742e-02 1.24226938933134078979e-02 1.96159873157739639282e-02 4.31840382516384124756e-02 1.81460995227098464966e-02 -4.59446124732494354248e-02 -1.12444078549742698669e-02 -2.21987906843423843384e-02 2.28092838078737258911e-02 -6.26979097723960876465e-02 -7.96963721513748168945e-02 -1.06096148490905761719e-01 -4.67322813346982002258e-03 1.35499596595764160156e-01 -2.29986160993576049805e-02 -7.83038511872291564941e-02 -9.65453162789344787598e-02 -1.02186195552349090576e-01 6.70214593410491943359e-02 -8.44985917210578918457e-02 -7.73581191897392272949e-02 -4.58777025341987609863e-02 -3.72872315347194671631e-03 4.22641448676586151123e-02 -1.31517406553030014038e-02 -4.80839051306247711182e-02 -1.89503356814384460449e-02 9.68025177717208862305e-02 -1.03687852621078491211e-01 1.78738292306661605835e-02 4.11664918065071105957e-02 -3.01971621811389923096e-02 -1.00080691277980804443e-01 6.50481954216957092285e-02 -7.53523502498865127563e-03 -9.32972729206085205078e-02 2.35339235514402389526e-02 -6.85944780707359313965e-02 -2.60978769510984420776e-02 -2.76557728648185729980e-02 1.64380688220262527466e-02 6.03612884879112243652e-02 3.29662747681140899658e-02 -1.55185516923666000366e-02 -1.07771195471286773682e-01 -3.09467203915119171143e-02 9.28949192166328430176e-02 -5.70075064897537231445e-02 -1.46318152546882629395e-02 1.44602935761213302612e-02 2.85406447947025299072e-02 -8.09664577245712280273e-02 3.83841688744723796844e-03 9.43324044346809387207e-02 -2.49581821262836456299e-02 6.55503645539283752441e-02 8.73997807502746582031e-02 -5.89328072965145111084e-02 -5.62192946672439575195e-02 -5.82244455814361572266e-01 1.83754395693540573120e-02 7.87199884653091430664e-02 -5.73543570935726165771e-02 2.31968443840742111206e-02 2.67253052443265914917e-02 -1.52611956000328063965e-02 -2.79903113842010498047e-02 3.54838445782661437988e-02 -7.12067186832427978516e-02 -6.54158890247344970703e-02 -7.34433755278587341309e-02 1.15436678752303123474e-02 -9.59742367267608642578e-02 -5.33485747873783111572e-02 1.78116746246814727783e-02 4.75030392408370971680e-03 -8.54081809520721435547e-02 2.68827145919203758240e-03 -2.74708997458219528198e-02 7.86865949630737304688e-02 -5.95323331654071807861e-02 1.23737186193466186523e-01 -9.84831675887107849121e-02 -6.66493549942970275879e-02 -6.66660070419311523438e-03 4.17764484882354736328e-02 1.92664325237274169922e-01 1.86006946023553609848e-03 1.33693180978298187256e-02 1.06575310230255126953e-01 3.32135967910289764404e-02 9.17953774333000183105e-02 4.92741912603378295898e-02 4.01033349335193634033e-02 8.44454467296600341797e-02 -8.18689465522766113281e-02 -3.59537489712238311768e-02 -7.08027705550193786621e-02 2.16285157948732376099e-02 4.62384894490242004395e-02 2.55468543618917465210e-02 4.94817756116390228271e-02 -4.90095168352127075195e-02 -4.43135872483253479004e-02 5.14214150607585906982e-02 -7.32244737446308135986e-03 3.42935509979724884033e-02 -1.41807705163955688477e-01 -8.27573090791702270508e-02 4.70138266682624816895e-02 -4.52447347342967987061e-02 9.29230079054832458496e-02 2.05391924828290939331e-03 -1.06311261653900146484e-01 -1.93576198071241378784e-02 1.39842128753662109375e+00 5.50594270229339599609e-01 5.58587372303009033203e-01 -7.26220071315765380859e-01 -3.64564657211303710938e-01 3.48465055227279663086e-01 1.85395106673240661621e-01 2.23350214958190917969e+00 -3.27028942108154296875e+00 3.23646926879882812500e+00 -2.15748548507690429688e+00 2.02503904700279235840e-01 4.64232563972473144531e-01 4.84391838312149047852e-01 3.17846983671188354492e-01 -1.55351603031158447266e+00 -1.34937179088592529297e+00 -1.88168609142303466797e+00 6.90645575523376464844e-01 -2.29124128818511962891e-01 -8.16350042819976806641e-01 5.47953665256500244141e-01 -1.38270413875579833984e+00 2.64642167091369628906e+00 -7.01268911361694335938e+00 -1.67050921916961669922e+00 3.62368869781494140625e+00 2.75637328624725341797e-01 1.27520644664764404297e+00 -1.35068492963910102844e-02 1.25385367870330810547e+00 -1.40647363662719726562e+00 -8.19279909133911132812e-01 -2.42996191978454589844e+00 -7.40778982639312744141e-01 -1.51175510883331298828e+00 -7.18294501304626464844e-01 -7.89746642112731933594e-01 -1.71944037079811096191e-01 -1.23022019863128662109e+00 -9.10686492919921875000e+00 -6.85141086578369140625e+00 -1.01087498664855957031e+00 -1.82908248901367187500e+00 -4.60282444953918457031e-01 -4.77307140827178955078e-01 6.52908205986022949219e-01 1.18039715290069580078e+00 6.77476704120635986328e-01 5.87065517902374267578e-01 -9.13069784641265869141e-01 2.48858475685119628906e+00 8.56091737747192382812e-01 6.24642670154571533203e-01 3.49183440208435058594e+00 -1.59012115001678466797e+00 -6.43356752395629882812e+00 -4.15605485439300537109e-01 -1.23834788799285888672e+00 -4.55298215150833129883e-01 -2.81332314014434814453e-01 -1.41442820429801940918e-01 -1.07618904113769531250e+00 -2.93513476848602294922e-01 9.71857428550720214844e-01 -1.68108093738555908203e+00 1.60092937946319580078e+00 6.08962811529636383057e-02 -1.13125391304492950439e-01 1.88684320449829101562e+00 1.03103071451187133789e-01 -8.19214439392089843750e+00 -2.98400998115539550781e+00 -9.73054587841033935547e-01 2.61284947395324707031e-01 -4.02168214321136474609e-01 1.15652263164520263672e+00 -1.06830072402954101562e+00 -2.24505782127380371094e+00 2.67536759376525878906e-01 4.98128861188888549805e-01 3.01291704177856445312e-01 2.72376593202352523804e-02 -1.06338584423065185547e+00 7.13133692741394042969e-01 1.93021500110626220703e+00 1.14483404159545898438e+00 -3.98842059075832366943e-02 1.47228345274925231934e-01 -1.03048646450042724609e+00 7.05640092492103576660e-02 -5.77476859092712402344e-01 -1.05081808567047119141e+00 1.56412824988365173340e-01 -1.72032147645950317383e-01 -7.46015846729278564453e-01 -1.48922848701477050781e+00 1.25716602802276611328e+00 2.59072750806808471680e-01 -1.15997469425201416016e+00 -1.18876826763153076172e+00 7.64387696981430053711e-02 -7.07260593771934509277e-02 -9.42626774311065673828e-01 1.15554082393646240234e+00 -1.40877079963684082031e+00 1.54679799079895019531e+00 1.13610374927520751953e+00 8.54632019996643066406e-01 1.31829833984375000000e+00 1.34151422977447509766e+00 -4.64260488748550415039e-01 8.22301924228668212891e-01 7.51837670803070068359e-01 -1.22945332527160644531e+00 1.02309592068195343018e-01 2.26053863763809204102e-01 1.39722251892089843750e+00 -9.82690274715423583984e-01 7.06770181655883789062e-01 7.79978334903717041016e-01 -5.64089119434356689453e-01 2.90950345993041992188e+00 1.03167247772216796875e+00 -3.39924782514572143555e-01 9.70506574958562850952e-03 -1.26472318172454833984e+00 1.23523008823394775391e+00 4.48743462562561035156e-01 -1.19500446319580078125e+00 9.06057178974151611328e-01 5.17852544784545898438e-01 -3.05767917633056640625e+00 7.69375339150428771973e-02 4.15281820297241210938e+00 -5.37685155868530273438e-01 5.63358187675476074219e-01 -2.36058259010314941406e+00 7.87624418735504150391e-01 1.14991533756256103516e+00 -1.11429154872894287109e+00 -1.20495283603668212891e+00 6.53855323791503906250e-01 -4.28897470235824584961e-01 1.54506668448448181152e-01 1.77774822711944580078e+00 -1.77593338489532470703e+00 -5.21840572357177734375e-01 1.63907241076231002808e-02 9.15054157376289367676e-02 3.46433162689208984375e-01 -3.86768865585327148438e+00 4.28064651787281036377e-02 -3.20141363143920898438e+00 9.48750197887420654297e-01 -1.80216395854949951172e+00 5.07137537002563476562e-01 5.07219493389129638672e-01 9.60385859012603759766e-01 1.17964327335357666016e+00 -1.96737980842590332031e+00 -1.41917777061462402344e+00 -1.17982184886932373047e+00 1.76748991012573242188e+00 2.09235024452209472656e+00 1.58354148268699645996e-01 1.40456247329711914062e+00 -1.85742938518524169922e+00 -3.53440433740615844727e-01 -6.80481418967247009277e-02 9.16621863842010498047e-01 9.96146023273468017578e-01 8.42749655246734619141e-01 -1.11068880558013916016e+00 -1.14224255084991455078e+00 1.55889308452606201172e+00 7.90345788002014160156e-01 4.96006682515144348145e-02 -4.03089880943298339844e-01 -9.73290205001831054688e-01 -1.18229174613952636719e+00 8.72706174850463867188e-01 -2.13032484054565429688e+00 2.54741907119750976562e-01 1.09668695926666259766e+00 9.35873687267303466797e-01 -2.51095819473266601562e+00 -1.89867699146270751953e+00 -1.45036137104034423828e+00 -1.75519168376922607422e+00 1.00457441806793212891e+00 -1.96522995829582214355e-01 -2.00311803817749023438e+00 -3.94042968750000000000e-01 -3.79357576370239257812e-01 -2.37161606550216674805e-01 -1.71619939804077148438e+00 -9.52363684773445129395e-02 -8.12563672661781311035e-02 1.27062499523162841797e-01 -4.67034697532653808594e-01 -7.63052821159362792969e-01 -2.26793694496154785156e+00 -9.23959970474243164062e-01 2.40693783760070800781e+00 -9.97592628002166748047e-01 -7.96311974525451660156e-01 -4.13550883531570434570e-02 -6.02480828762054443359e-01 -2.62367105484008789062e+00 -7.67229914665222167969e-01 1.21966563165187835693e-01 -1.44869223237037658691e-01 -2.52781361341476440430e-01 3.57008963823318481445e-01 -2.99323648214340209961e-01 9.78188097476959228516e-01 -2.35403704643249511719e+00 1.30821514129638671875e+00 -5.23061692714691162109e-01 -3.77220839262008666992e-01 1.15232205390930175781e+00 -4.02790261432528495789e-03 -8.14608156681060791016e-01 -1.95943117141723632812e+00 -3.08154845237731933594e+00 2.63499230146408081055e-01 -1.28182137012481689453e+00 9.24728989601135253906e-01 1.49489498138427734375e+00 -8.28454494476318359375e-01 3.54509562253952026367e-01 1.70633137226104736328e+00 9.45578038692474365234e-01 1.75215411186218261719e+00 1.00733745098114013672e+00 -1.52157258987426757812e+00 6.39421582221984863281e-01 1.95325970649719238281e-01 3.86776477098464965820e-01 2.15613722801208496094e-01 1.08109998703002929688e+00 -1.14490628242492675781e+00 -8.17825019359588623047e-01 1.93247187137603759766e+00 -8.69404375553131103516e-01 -2.69247770309448242188e+00 1.21395421028137207031e+00 1.62614822387695312500e+00 1.80491650104522705078e+00 3.21832686662673950195e-01 1.16564083099365234375e+00 -4.87167149782180786133e-01 -1.46903306245803833008e-01 5.16420483589172363281e-01 -7.48469710350036621094e-01 -1.45934973144531250000e+03 -1.50000000000000000000e+03 1.50000000000000000000e+03 -1.48945373535156250000e+03 -1.50000000000000000000e+03 -1.50000000000000000000e+03 -1.45825268554687500000e+03 -1.50000000000000000000e+03 -1.50000000000000000000e+03 1.48552526855468750000e+03 1.50000000000000000000e+03 1.49989868164062500000e+03 -1.43325122070312500000e+03 1.49645947265625000000e+03 1.50000000000000000000e+03 -1.49588891601562500000e+03 1.49835131835937500000e+03 1.49966271972656250000e+03 1.50000000000000000000e+03 1.43851452636718750000e+03 -5.42716636657714843750e+01 1.40799389648437500000e+03 -8.79004577636718750000e+02 7.55000488281250000000e+02 -1.50000000000000000000e+03 -1.50000000000000000000e+03 -1.47934619140625000000e+03 -1.49951318359375000000e+03 1.50000000000000000000e+03 1.31277490234375000000e+03 1.50000000000000000000e+03 -3.76234466552734375000e+02 1.50000000000000000000e+03 -1.50000000000000000000e+03 -1.49529296875000000000e+03 -1.11797045898437500000e+03 -1.31979846191406250000e+03 -1.47443457031250000000e+03 -1.14880920410156250000e+03 1.39490722656250000000e+03 1.49203540039062500000e+03 -1.50000000000000000000e+03 1.06596691894531250000e+03 1.49999926757812500000e+03 1.50000000000000000000e+03 -1.50000000000000000000e+03 1.47522827148437500000e+03 -2.59279418945312500000e+02 -1.50000000000000000000e+03 -1.42157751464843750000e+03 1.48582250976562500000e+03 1.50000000000000000000e+03 -1.49708728027343750000e+03 -1.47279296875000000000e+02 -1.48129479980468750000e+03 -1.49992932128906250000e+03 -7.79004882812500000000e+02 1.50000000000000000000e+03 1.50000000000000000000e+03 1.50000000000000000000e+03 -1.31967309570312500000e+03 1.50000000000000000000e+03 -1.45521679687500000000e+03 -1.38188024902343750000e+03 2.84842559814453125000e+02 5.74125328063964843750e+01 1.49950646972656250000e+03 -1.48517041015625000000e+03 -1.33762707519531250000e+03 -1.50000000000000000000e+03 -1.50000000000000000000e+03 -1.50000000000000000000e+03 -1.43670825195312500000e+03 1.50000000000000000000e+03 3.25891021728515625000e+02 1.44573291015625000000e+03 -1.50000000000000000000e+03 1.50000000000000000000e+03 1.49999987792968750000e+03 -1.50000000000000000000e+03 1.49343811035156250000e+03 1.50000000000000000000e+03 -1.49527075195312500000e+03 -1.50000000000000000000e+03 -1.49872692871093750000e+03 1.01526501464843750000e+03 1.50000000000000000000e+03 1.49985058593750000000e+03 -1.48808715820312500000e+03 1.50000000000000000000e+03 1.50000000000000000000e+03 1.50000000000000000000e+03 -1.35048645019531250000e+03 4.71699340820312500000e+02 8.14030761718750000000e+01 1.49999987792968750000e+03 1.49715319824218750000e+03 -1.50000000000000000000e+03 -8.02457214355468750000e+02 -1.48294018554687500000e+03 5.60517822265625000000e+02 1.47598742675781250000e+03 1.50000000000000000000e+03 1.49587695312500000000e+03 1.50000000000000000000e+03 1.24613232421875000000e+03 1.50000000000000000000e+03 1.50000000000000000000e+03 1.49982104492187500000e+03 1.50000000000000000000e+03 1.36322509765625000000e+03 1.48318237304687500000e+03 -3.73556274414062500000e+02 1.50000000000000000000e+03 1.48328234863281250000e+03 -5.84531494140625000000e+02 1.49734814453125000000e+03 5.01750732421875000000e+02 1.49995898437500000000e+03 1.50000000000000000000e+03 5.01795898437500000000e+02 -9.02407714843750000000e+02 -1.50000000000000000000e+03 -1.50000000000000000000e+03 -1.50000000000000000000e+03 1.49749157714843750000e+03 1.42422058105468750000e+03 3.16634693145751953125e+01 -1.47625219726562500000e+03 1.50000000000000000000e+03 1.49999987792968750000e+03 1.50000000000000000000e+03 1.50000000000000000000e+03 -9.65444030761718750000e+02 1.50000000000000000000e+03 -1.35416174316406250000e+03 1.50000000000000000000e+03 -1.50000000000000000000e+03 -1.50000000000000000000e+03 -1.26926147460937500000e+03 1.48938537597656250000e+03 -1.50000000000000000000e+03 1.49722619628906250000e+03 4.41560485839843750000e+02 1.50000000000000000000e+03 1.50000000000000000000e+03 1.50000000000000000000e+03 1.48531799316406250000e+03 -1.50000000000000000000e+03 -1.50000000000000000000e+03 1.50000000000000000000e+03 2.84244445800781250000e+02 -5.26811340332031250000e+02 1.49748937988281250000e+03 -1.50000000000000000000e+03 -1.45965393066406250000e+03 -1.49742004394531250000e+03 -1.50000000000000000000e+03 -1.89650451660156250000e+02 1.48645324707031250000e+03 1.49866674804687500000e+03 1.47460339355468750000e+03 1.49999780273437500000e+03 -1.55315017700195312500e+02 -8.36638717651367187500e+01 -1.49741552734375000000e+03 1.50000000000000000000e+03 1.50000000000000000000e+03 1.49953881835937500000e+03 1.49949401855468750000e+03 1.50000000000000000000e+03 -1.38283740234375000000e+03 3.97701263427734375000e+01 1.49875781250000000000e+03 -1.47503466796875000000e+03 -1.50000000000000000000e+03 1.49908337402343750000e+03 6.52300548553466796875e+00 1.50000000000000000000e+03 1.50000000000000000000e+03 1.41254930496215820312e+01 -1.50000000000000000000e+03 -1.50000000000000000000e+03 1.50000000000000000000e+03 -1.47340783691406250000e+03 1.50000000000000000000e+03 1.50000000000000000000e+03 1.50000000000000000000e+03 -1.47764685058593750000e+03 -1.08553881835937500000e+03 -1.50000000000000000000e+03 -1.50000000000000000000e+03 -5.00000885009765625000e+02 1.49969067382812500000e+03 -1.41213024902343750000e+03 -1.50000000000000000000e+03 -1.49775378417968750000e+03 -1.30617797851562500000e+03 -1.44440808105468750000e+03 -1.50000000000000000000e+03 -1.47443249511718750000e+03 -1.46615881347656250000e+03 -1.49911535644531250000e+03 1.39208410644531250000e+03 1.45543786621093750000e+03 1.50000000000000000000e+03 -1.50000000000000000000e+03 1.49769042968750000000e+03 1.50000000000000000000e+03 1.49921704101562500000e+03 -1.50000000000000000000e+03 -1.49971215820312500000e+03 1.49877941894531250000e+03 -1.38734008789062500000e+03 -1.50000000000000000000e+03 -1.50000000000000000000e+03 -1.50000000000000000000e+03 -1.50000000000000000000e+03 1.49582250976562500000e+03 1.50000000000000000000e+03 1.50000000000000000000e+03 1.44626110839843750000e+03 1.40945202636718750000e+03 1.48525439453125000000e+03 -1.50000000000000000000e+03 -1.50000000000000000000e+03 -1.50000000000000000000e+03 1.48760131835937500000e+03 1.48609118652343750000e+03 1.49219958496093750000e+03 -1.50000000000000000000e+03 1.44306323242187500000e+03 -1.50000000000000000000e+03 -1.50000000000000000000e+03 1.49999951171875000000e+03 1.49352673339843750000e+03 1.46479785156250000000e+03 6.38549987792968750000e+02 -1.23863000488281250000e+03 1.50000000000000000000e+03 -1.49999963378906250000e+03 -1.49908007812500000000e+03 4.44811187744140625000e+02 -1.49998730468750000000e+03 1.50000000000000000000e+03 -1.49671350097656250000e+03 1.49609289550781250000e+03 7.48596679687500000000e+02 -4.71787834167480468750e+01 1.49999963378906250000e+03 -1.50000000000000000000e+03 1.49493908691406250000e+03 1.49614501953125000000e+03 -1.50000000000000000000e+03 1.01229913330078125000e+03 -1.36237963867187500000e+03 -2.39647689819335937500e+02 6.55291378498077392578e-02 -9.73238646984100341797e-02 -1.34487062692642211914e-01 -2.56874144077301025391e-01 -7.09924027323722839355e-02 7.51777589321136474609e-02 2.19961419701576232910e-01 1.63249336183071136475e-02 -1.33057996630668640137e-01 1.74763705581426620483e-02 -1.48793961852788925171e-02 4.12111580371856689453e-02 8.54340940713882446289e-02 -3.50590795278549194336e-02 3.20896543562412261963e-02 -6.93129748106002807617e-02 -4.92733437567949295044e-03 -6.11386746168136596680e-02 6.70561846345663070679e-03 -6.68163597583770751953e-02 -1.52256023138761520386e-02 2.66665481030941009521e-02 -8.27382653951644897461e-02 8.89364555478096008301e-02 7.89224728941917419434e-02 -5.34670054912567138672e-02 -1.60550087690353393555e-01 3.30237783491611480713e-02 -9.91946384310722351074e-02 8.12013745307922363281e-02 -4.38489541411399841309e-02 1.29348449409008026123e-02 -5.99333420395851135254e-02 -1.32356092333793640137e-01 -5.67574705928564071655e-03 -1.23435240238904953003e-02 1.91351678222417831421e-02 -9.80829540640115737915e-03 -1.31382690742611885071e-02 -4.01783347129821777344e-01 7.82080814242362976074e-02 2.50141769647598266602e-02 -7.04297050833702087402e-02 -1.28342956304550170898e-02 -4.88639250397682189941e-02 7.64031261205673217773e-02 -6.99256807565689086914e-02 -8.49361568689346313477e-02 4.73305210471153259277e-02 2.93769743293523788452e-02 -3.93196009099483489990e-02 3.85517813265323638916e-02 -1.31207048892974853516e-01 -1.01234547793865203857e-01 -7.02133104205131530762e-02 -4.24200966954231262207e-02 4.44796010851860046387e-02 1.56189771369099617004e-02 2.77617238461971282959e-02 7.82207679003477096558e-03 -4.97535765171051025391e-02 -7.07445144653320312500e-02 -5.21865934133529663086e-02 -5.42081557214260101318e-02 -4.73805218935012817383e-02 1.36838704347610473633e-02 -3.14297825098037719727e-02 8.44455882906913757324e-02 5.93789666891098022461e-03 -1.95345561951398849487e-02 2.02632900327444076538e-02 4.53511588275432586670e-02 6.78257346153259277344e-02 8.52288827300071716309e-02 5.24783805012702941895e-02 -5.63190542161464691162e-02 -3.59354689717292785645e-02 -7.35870152711868286133e-02 6.62941485643386840820e-04 -1.03149265050888061523e-01 9.32466313242912292480e-02 4.15782742202281951904e-02 -8.44309553503990173340e-02 -2.57488191127777099609e-01 -4.49619181454181671143e-02 7.76553004980087280273e-02 -3.17302346229553222656e-02 -1.57709106802940368652e-01 -9.14850980043411254883e-02 6.30433186888694763184e-02 -8.77025425434112548828e-02 -4.82838973402976989746e-02 4.29199449717998504639e-02 5.56213185191154479980e-02 -3.98123338818550109863e-02 -6.09643794596195220947e-02 -3.68991233408451080322e-02 -3.22810411453247070312e-02 -6.27102777361869812012e-02 6.55718445777893066406e-02 2.31543257832527160645e-02 7.13866949081420898438e-02 2.84085161983966827393e-02 1.10792154446244239807e-02 8.14756080508232116699e-02 -5.71998134255409240723e-02 -5.79072237014770507812e-02 2.13347421959042549133e-03 6.19331896305084228516e-02 -9.17580947279930114746e-02 5.60661219060420989990e-02 -1.28613397479057312012e-01 8.32207128405570983887e-02 1.41923753544688224792e-02 -1.78250685334205627441e-01 -5.65607994794845581055e-02 -4.24010418355464935303e-02 -3.91664132475852966309e-02 -7.05141052603721618652e-02 2.32340499758720397949e-01 6.25840798020362854004e-02 -1.77990589290857315063e-02 6.32598847150802612305e-02 4.15089093148708343506e-02 7.85246863961219787598e-02 -1.14032924175262451172e-01 -2.89513245224952697754e-02 9.63872969150543212891e-02 -3.50971221923828125000e-02 -5.17015457153320312500e-02 -8.30457359552383422852e-02 -4.16314825415611267090e-02 7.76937529444694519043e-02 6.79021999239921569824e-02 -1.07796108350157737732e-02 1.48531839251518249512e-01 2.07875557243824005127e-02 -5.17936199903488159180e-02 -1.34990960359573364258e-02 9.60977375507354736328e-03 1.04736782610416412354e-01 9.24901366233825683594e-02 1.93975232541561126709e-02 4.02698069810867309570e-02 -8.91868919134140014648e-02 5.03442622721195220947e-02 -7.27146863937377929688e-02 1.45456930622458457947e-02 7.45936259627342224121e-02 -4.98469397425651550293e-02 1.79601050913333892822e-02 -1.01755008101463317871e-01 -4.60487790405750274658e-02 -7.13300630450248718262e-02 -1.86972655355930328369e-02 -9.59764793515205383301e-02 -3.47818583250045776367e-02 4.54789996147155761719e-02 -6.50555863976478576660e-02 -2.33298223465681076050e-02 9.21059399843215942383e-02 1.93128492683172225952e-02 -1.11096173524856567383e-01 6.47221282124519348145e-02 -1.00756935775279998779e-01 9.04355123639106750488e-02 -6.90006911754608154297e-02 -8.82852673530578613281e-02 7.65054970979690551758e-02 8.91091376543045043945e-02 -8.71585234999656677246e-02 -1.07535637915134429932e-01 7.30322226881980895996e-02 -7.39660263061523437500e-02 7.38935172557830810547e-02 -8.87663587927818298340e-02 -5.26965111494064331055e-02 -3.16029647365212440491e-03 4.43922318518161773682e-02 -8.93769115209579467773e-02 1.04501843452453613281e-01 2.71695274859666824341e-02 -9.94036197662353515625e-02 -1.01319983601570129395e-01 -7.63904675841331481934e-02 6.72383382916450500488e-02 5.69380559027194976807e-02 1.97498183697462081909e-02 6.57686358317732810974e-03 -4.30310405790805816650e-02 6.00300244987010955811e-02 3.00274472683668136597e-02 -4.89075705409049987793e-02 -5.42582571506500244141e-02 -1.01979941129684448242e-01 9.62750334292650222778e-03 -1.12558184191584587097e-02 5.61942011117935180664e-02 -1.00856922566890716553e-01 -1.16113796830177307129e-02 -2.81103905290365219116e-02 5.99112994968891143799e-02 6.12957924604415893555e-02 1.62570718675851821899e-02 -2.03939557075500488281e-01 2.79318522661924362183e-02 3.62446010112762451172e-02 4.82610352337360382080e-02 -1.76059693098068237305e-01 -1.17974556982517242432e-01 5.14871291816234588623e-02 -7.94876515865325927734e-02 5.90304285287857055664e-02 3.83563190698623657227e-02 -5.36514967679977416992e-02 -6.96868523955345153809e-02 2.21823304891586303711e-02 -4.75709848105907440186e-02 3.53103131055831909180e-02 -1.17320828139781951904e-01 -7.20192417502403259277e-02 1.20398901402950286865e-01 -5.79896122217178344727e-02 5.37422951310873031616e-03 -1.00187875330448150635e-01 -3.59933711588382720947e-02 7.33794346451759338379e-02 -6.30234926939010620117e-02 3.82631011307239532471e-02 1.38635829091072082520e-01 9.64485555887222290039e-02 7.34754577279090881348e-02 9.96812358498573303223e-02 2.34707314521074295044e-02 -1.62707306444644927979e-02 3.43199484050273895264e-02 6.56242892146110534668e-02 2.13415697216987609863e-02 -5.16865514218807220459e-02 -1.00200595334172248840e-02 2.46413685381412506104e-02 -1.96164157241582870483e-02 -2.05633156001567840576e-02 -5.53416535258293151855e-02 -4.62991967797279357910e-02 9.25256386399269104004e-02 1.12877056002616882324e-01 -8.92771407961845397949e-02 7.36019527539610862732e-03 -9.77690983563661575317e-03 -1.31828755140304565430e-01 -4.47886325418949127197e-02 4.51050698757171630859e-02 -6.12176582217216491699e-02 -3.01883481442928314209e-02 -6.03886879980564117432e-02 -6.80962800979614257812e-02 8.85311645507812500000e+02 6.32598937988281250000e+02 -1.41326098632812500000e+03 -1.47397485351562500000e+03 -1.17067016601562500000e+03 -1.50000000000000000000e+03 -1.47744091796875000000e+03 1.49985705566406250000e+03 5.07138397216796875000e+02 1.48501879882812500000e+03 1.50000000000000000000e+03 1.43074316406250000000e+03 1.49831335449218750000e+03 -1.28930236816406250000e+03 -1.34493334960937500000e+03 -1.17009167480468750000e+03 -1.21974523925781250000e+03 1.49583312988281250000e+03 -1.49897656250000000000e+03 -1.49892236328125000000e+03 -9.29265136718750000000e+02 1.50000000000000000000e+03 -1.21243847656250000000e+03 1.35079064941406250000e+03 1.49991662597656250000e+03 1.41634069824218750000e+03 -1.49264379882812500000e+03 1.49938232421875000000e+03 1.49745520019531250000e+03 -1.48959667968750000000e+03 1.49999975585937500000e+03 -1.49405102539062500000e+03 -1.49028210449218750000e+03 -1.45798095703125000000e+03 -1.49870263671875000000e+03 -1.49997070312500000000e+03 -1.33129260253906250000e+03 1.50000000000000000000e+03 -1.49916564941406250000e+03 1.50000000000000000000e+03 1.49999304199218750000e+03 1.48710754394531250000e+03 -1.49967724609375000000e+03 -1.49277624511718750000e+03 -1.42575695800781250000e+03 -4.16368713378906250000e+02 1.48913342285156250000e+03 2.01784652709960937500e+02 1.32618237304687500000e+03 1.50000000000000000000e+03 -1.28104846191406250000e+03 -1.50000000000000000000e+03 -1.50000000000000000000e+03 -1.48751818847656250000e+03 -1.49683593750000000000e+03 -1.89385940551757812500e+02 -1.49786950683593750000e+03 -1.48586730957031250000e+03 -1.49909680175781250000e+03 -1.48011987304687500000e+03 -1.49967602539062500000e+03 -1.49997998046875000000e+03 1.49999719238281250000e+03 -1.09046813964843750000e+03 -2.46021102905273437500e+02 1.41927673339843750000e+03 1.49542346191406250000e+03 -1.49828015136718750000e+03 -5.90455139160156250000e+02 1.50000000000000000000e+03 1.49337841796875000000e+03 1.45810156250000000000e+03 1.13633178710937500000e+03 -9.66045837402343750000e+02 1.47563500976562500000e+03 -1.49998767089843750000e+03 5.11954345703125000000e+02 5.97111999511718750000e+02 -1.49988891601562500000e+03 7.72380981445312500000e+02 -5.51391967773437500000e+02 -1.49999755859375000000e+03 1.50000000000000000000e+03 1.45205969238281250000e+03 -1.28491467285156250000e+03 1.49721545410156250000e+03 -1.48715905761718750000e+03 1.49321203613281250000e+03 1.49993017578125000000e+03 1.42798315429687500000e+03 1.50000000000000000000e+03 -1.49081286621093750000e+03 -1.49854785156250000000e+03 1.50000000000000000000e+03 1.13872436523437500000e+03 1.64688293457031250000e+02 1.49904748535156250000e+03 1.49983496093750000000e+03 1.49802673339843750000e+03 1.49999877929687500000e+03 -1.46667089843750000000e+03 1.49960729980468750000e+03 -1.41297546386718750000e+03 -1.48485034179687500000e+03 1.50000000000000000000e+03 1.32584606933593750000e+03 1.50000000000000000000e+03 1.50000000000000000000e+03 -1.47219726562500000000e+03 -7.72160482406616210938e+00 -6.83550109863281250000e+02 -1.49294909667968750000e+03 -6.16541259765625000000e+02 4.09457244873046875000e+02 -1.49952819824218750000e+03 1.48270898437500000000e+03 -1.41217907714843750000e+03 -1.50000000000000000000e+03 1.50000000000000000000e+03 -1.49996203613281250000e+03 -1.49379309082031250000e+03 1.48294580078125000000e+03 -1.46208398437500000000e+03 1.49834838867187500000e+03 -9.16575134277343750000e+02 -1.26720288085937500000e+03 -8.94518493652343750000e+02 1.48604162597656250000e+03 1.40254821777343750000e+03 1.50000000000000000000e+03 -1.44908630371093750000e+03 -1.50000000000000000000e+03 3.38503326416015625000e+02 -4.72834197998046875000e+02 -2.48685703277587890625e+01 1.50000000000000000000e+03 1.49997375488281250000e+03 -1.48658203125000000000e+03 -1.49573339843750000000e+03 7.97879638671875000000e+02 1.49788891601562500000e+03 1.50000000000000000000e+03 -5.19180175781250000000e+02 1.49645239257812500000e+03 1.50000000000000000000e+03 -1.44308728027343750000e+03 -1.45748779296875000000e+03 -1.49512927246093750000e+03 -1.49964489746093750000e+03 7.36045288085937500000e+02 1.49999914550781250000e+03 -1.50000000000000000000e+03 1.49999487304687500000e+03 -7.03841735839843750000e+02 -1.49969372558593750000e+03 -2.35342987060546875000e+02 1.50000000000000000000e+03 1.49958349609375000000e+03 1.49977355957031250000e+03 1.49893469238281250000e+03 5.55841308593750000000e+02 1.50000000000000000000e+03 -1.49992602539062500000e+03 1.49741003417968750000e+03 -1.50000000000000000000e+03 1.49638012695312500000e+03 -1.49993017578125000000e+03 1.48321276855468750000e+03 1.11303369140625000000e+03 1.49942041015625000000e+03 1.49985412597656250000e+03 -1.49697912597656250000e+03 1.49779528808593750000e+03 1.49926300048828125000e+02 4.84299325942993164062e+00 7.45185974121093750000e+02 3.56474418640136718750e+01 -9.74226867675781250000e+02 -1.48844067382812500000e+03 1.44940515136718750000e+03 -1.50000000000000000000e+03 -1.48064746093750000000e+03 -1.49932324218750000000e+03 1.50000000000000000000e+03 1.50000000000000000000e+03 1.49953186035156250000e+03 -1.49695190429687500000e+03 -1.04415295410156250000e+03 -1.39255017089843750000e+03 -1.46300231933593750000e+03 1.50000000000000000000e+03 -1.32057763671875000000e+03 -1.11086682128906250000e+03 -5.79595642089843750000e+02 -1.50000000000000000000e+03 1.49988391113281250000e+03 1.47979650878906250000e+03 -1.49945739746093750000e+03 -1.49999743652343750000e+03 -1.49988012695312500000e+03 -1.49999304199218750000e+03 -1.50000000000000000000e+03 -1.49972692871093750000e+03 1.49776538085937500000e+03 -1.49589550781250000000e+03 -8.21890686035156250000e+02 -1.44062414550781250000e+03 -1.50000000000000000000e+03 1.39559777832031250000e+03 -1.45434204101562500000e+03 1.49999865722656250000e+03 1.49460644531250000000e+03 1.31035156250000000000e+03 -1.44202807617187500000e+03 1.49307617187500000000e+03 1.49992333984375000000e+03 -1.48210742187500000000e+03 1.49885632324218750000e+03 1.40840063476562500000e+03 8.31472534179687500000e+02 1.47337438964843750000e+03 -1.26492175292968750000e+03 -1.37206115722656250000e+02 -1.43882885742187500000e+03 -1.49997924804687500000e+03 -1.49014587402343750000e+03 1.23594677734375000000e+03 6.50120697021484375000e+01 1.07361730957031250000e+03 -1.49830969238281250000e+03 1.49865795898437500000e+03 1.48053369140625000000e+03 -3.04467163085937500000e+02 -1.49845556640625000000e+03 1.50000000000000000000e+03 1.49988232421875000000e+03 1.49984582519531250000e+03 -1.49954956054687500000e+03 -3.62499694824218750000e+02 -1.47866516113281250000e+03 1.49748864746093750000e+03 1.50000000000000000000e+03 1.46710095214843750000e+03 -1.39861462402343750000e+03 -1.49974792480468750000e+03 1.49999877929687500000e+03 -1.50000000000000000000e+03 1.50000000000000000000e+03 -1.49894262695312500000e+03 -1.50000000000000000000e+03 -1.47393078613281250000e+03 -1.49611267089843750000e+03 1.48213708496093750000e+03 -1.49997473144531250000e+03 1.49999975585937500000e+03 2.75139068603515625000e+02 -3.07671815156936645508e-01 -1.47875256347656250000e+03 -1.45172119140625000000e+03 1.46573583984375000000e+03 2.63168609619140625000e+02 1.50000000000000000000e+03 -1.48071105957031250000e+03 -1.50000000000000000000e+03 1.49941174316406250000e+03 -1.49999902343750000000e+03 1.48306542968750000000e+03 1.49854492187500000000e+03 -1.41449719238281250000e+03 1.21944786071777343750e+02 -4.80294532775878906250e+01 1.11689611816406250000e+03 1.26313598632812500000e+03 4.08653930664062500000e+02 1.04808691406250000000e+03 8.12772460937500000000e+02 -1.46004748535156250000e+03 1.50000000000000000000e+03 -3.87924591064453125000e+02 9.68548156738281250000e+02 -1.49975512695312500000e+03 -1.43899523925781250000e+03 -4.68180236816406250000e+01 -1.50000000000000000000e+03 -1.02922924804687500000e+03 7.46006774902343750000e+02 1.23337280273437500000e+03 -9.62672546386718750000e+02 1.11879064941406250000e+03 -1.49999584960937500000e+03 -1.48497705078125000000e+03 -1.46697998046875000000e+03 -1.50000000000000000000e+03 1.43930065917968750000e+03 1.49941845703125000000e+03 1.49998974609375000000e+03 1.49964404296875000000e+03 -1.48675622558593750000e+03 1.46681115722656250000e+03 1.49566076660156250000e+03 -1.49999963378906250000e+03 -1.00718463134765625000e+03 -1.36019287109375000000e+03 -1.11447900390625000000e+03 1.15468054199218750000e+03 1.49500122070312500000e+03 1.49998217773437500000e+03 1.28742492675781250000e+02 -1.49613012695312500000e+03 -1.54641571044921875000e+02 1.49631140136718750000e+03 1.49368249511718750000e+03 1.49857739257812500000e+03 1.49999951171875000000e+03 1.49970214843750000000e+03 -1.48304663085937500000e+03 -8.49744949340820312500e+01 -4.86409088134765625000e+02 -1.50000000000000000000e+03 1.49999987792968750000e+03 -1.50000000000000000000e+03 -5.08947326660156250000e+02 -1.34409667968750000000e+03 1.43650317382812500000e+03 -7.39357543945312500000e+02 1.43357275390625000000e+03 1.50000000000000000000e+03 2.12959213256835937500e+02 1.50000000000000000000e+03 -1.49597216796875000000e+03 -1.50000000000000000000e+03 -2.90242815017700195312e+00 -1.48584570312500000000e+03 1.41432446289062500000e+03 2.15018417358398437500e+02 1.25280627441406250000e+03 4.12797912597656250000e+02 9.67781494140625000000e+02 -4.19642486572265625000e+02 1.49999938964843750000e+03 6.27862453460693359375e+00 1.49999816894531250000e+03 1.49951879882812500000e+03 -1.49999963378906250000e+03 1.49999951171875000000e+03 1.50000000000000000000e+03 1.49995483398437500000e+03 -1.49186315917968750000e+03 -1.49920568847656250000e+03 -1.49994775390625000000e+03 1.49999853515625000000e+03 -1.49619738769531250000e+03 1.32015209960937500000e+03 4.21473663330078125000e+02 1.49342492675781250000e+03 -3.74771804809570312500e+01 1.48099243164062500000e+03 1.49999951171875000000e+03 -1.75833419799804687500e+02 -1.49675207519531250000e+03 -1.50000000000000000000e+03 -1.34482080078125000000e+03 -1.49873840332031250000e+03 1.48779138183593750000e+03 1.46708776855468750000e+03 1.49899365234375000000e+03 -1.49999987792968750000e+03 1.05599047851562500000e+03 1.46425671386718750000e+03 1.49997436523437500000e+03 1.43584716796875000000e+03 -7.82677612304687500000e+02 4.42738739013671875000e+02 -1.49999853515625000000e+03 -1.44949658203125000000e+03 -1.42332653808593750000e+03 -1.49942858886718750000e+03 -1.49999975585937500000e+03 1.49924865722656250000e+03 -1.49993615722656250000e+03 1.38854455566406250000e+03 1.45828906250000000000e+03 1.49831762695312500000e+03 1.50000000000000000000e+03 1.50000000000000000000e+03 4.12736572265625000000e+02 2.78033790588378906250e+01 1.47449279785156250000e+03 -1.46120935058593750000e+03 -1.49908593750000000000e+03 1.47584509277343750000e+03 1.50000000000000000000e+03 -1.49859692382812500000e+03 -1.24316772460937500000e+03 1.48578881835937500000e+03 1.49972302246093750000e+03 -1.48698925781250000000e+03 -1.49999914550781250000e+03 1.39820642089843750000e+03 1.49890283203125000000e+03 1.50000000000000000000e+03 1.49323193359375000000e+03 -1.49999865722656250000e+03 1.39012353515625000000e+03 -1.49923852539062500000e+03 1.39140820312500000000e+03 1.49999963378906250000e+03 -6.92974792480468750000e+02 1.50000000000000000000e+03 1.50000000000000000000e+03 -2.34657730102539062500e+02 -9.37193989753723144531e-01 -1.49974011230468750000e+03 -8.34799133300781250000e+02 -1.48653356933593750000e+03 -1.03094958496093750000e+03 1.49950769042968750000e+03 1.45539331054687500000e+03 -1.37699279785156250000e+03 -1.49918908691406250000e+03 -1.49645336914062500000e+03 -1.45145886230468750000e+03 -1.49996740722656250000e+03 -1.49990673828125000000e+03 1.48595764160156250000e+03 -1.46390722656250000000e+03 1.03094795227050781250e+02 -1.47134106445312500000e+03 1.49999963378906250000e+03 1.49735156250000000000e+03 -4.28174476623535156250e+01 -1.27747985839843750000e+03 1.85192733764648437500e+02 1.50000000000000000000e+03 -1.58966125488281250000e+02 -1.49908337402343750000e+03 -1.06844360351562500000e+03 -1.49872326660156250000e+03 1.50000000000000000000e+03 9.98946289062500000000e+02 7.15871887207031250000e+02 1.50000000000000000000e+03 9.11219360351562500000e+02 6.83418273925781250000e+02 1.49999816894531250000e+03 -1.50000000000000000000e+03 1.38103979492187500000e+03 -9.94784606933593750000e+02 -1.45896313476562500000e+03 7.30375900268554687500e+01 -1.01479931640625000000e+03 -1.49965478515625000000e+03 -1.48001110839843750000e+03 1.49453955078125000000e+03 1.49857946777343750000e+03 -2.37522563934326171875e+01 -1.45746166992187500000e+03 5.13735778808593750000e+02 5.11377105712890625000e+02 -1.41002099609375000000e+03 1.06183666992187500000e+03 -1.49076940917968750000e+03 -1.49420446777343750000e+03 7.55430908203125000000e+02 8.02031066894531250000e+02 -1.41840347290039062500e+02 1.48596282958984375000e+02 -1.41620996093750000000e+03 -1.49989440917968750000e+03 -1.20144531250000000000e+03 -1.50000000000000000000e+03 1.49797766113281250000e+03 1.41637500000000000000e+03 -1.50000000000000000000e+03 -1.49946923828125000000e+03 1.32885290527343750000e+03 6.88338500976562500000e+02 1.40065780639648437500e+02 -1.02490881347656250000e+03 -1.63341400146484375000e+02 -1.49433349609375000000e+03 -1.48004260253906250000e+03 5.80557678222656250000e+02 1.45635253906250000000e+03 1.16951318359375000000e+03 1.49987365722656250000e+03 -4.31929168701171875000e+02 1.49999658203125000000e+03 9.18840332031250000000e+02 -1.49994189453125000000e+03 -6.32132186889648437500e+01 -1.48215319824218750000e+03 1.48809606933593750000e+03 -1.49959155273437500000e+03 6.69008972167968750000e+02 -1.28814550781250000000e+03 2.28187774658203125000e+02 -1.50000000000000000000e+03 -1.05197192382812500000e+03 5.87300903320312500000e+02 7.27254760742187500000e+02 -1.49978466796875000000e+03 -4.79299774169921875000e+02 -1.49998937988281250000e+03 -9.38661193847656250000e+02 -1.48334484863281250000e+03 -1.47378112792968750000e+03 1.49999890136718750000e+03 -4.40362823486328125000e+02 -4.73535827636718750000e+02 -1.49687377929687500000e+03 2.31277755737304687500e+02 -1.37935070800781250000e+03 -2.76778876781463623047e-01 -4.89237532019615173340e-02 5.45817837119102478027e-02 -7.75347799062728881836e-02 -8.41844677925109863281e-02 -7.26038590073585510254e-02 8.54108333587646484375e-02 -4.64011989533901214600e-02 5.80905824899673461914e-02 -4.41939756274223327637e-02 -5.02174496650695800781e-02 -2.91704367846250534058e-02 -2.34644282609224319458e-02 2.05965619534254074097e-02 7.26226866245269775391e-02 8.19290354847908020020e-02 7.98418670892715454102e-02 -4.70785088837146759033e-02 4.50020283460617065430e-02 5.15047200024127960205e-02 9.51165985316038131714e-03 -1.03208206593990325928e-01 2.15993225574493408203e-02 -4.18091379106044769287e-03 8.20744261145591735840e-02 7.93095082044601440430e-02 1.01307652890682220459e-01 2.38512698560953140259e-02 6.57617896795272827148e-02 -7.06205368041992187500e-02 -3.83633822202682495117e-02 2.28997394442558288574e-02 5.58190867304801940918e-02 5.63551336526870727539e-02 6.60236254334449768066e-02 1.78761966526508331299e-02 -2.67874710261821746826e-02 2.97306664288043975830e-02 2.33692750334739685059e-02 5.08226342499256134033e-02 4.31170910596847534180e-02 -3.34255769848823547363e-02 7.74176940321922302246e-02 -8.95865932106971740723e-02 -6.36653900146484375000e-02 4.86972406506538391113e-02 1.22827790677547454834e-01 -7.16264694929122924805e-02 -1.05864182114601135254e-02 6.83407634496688842773e-02 2.54536103457212448120e-02 1.44801527261734008789e-01 -3.76722477376461029053e-02 9.46827530860900878906e-02 5.07384575903415679932e-02 -5.20320497453212738037e-02 -6.18869662284851074219e-02 5.78908994793891906738e-02 -1.09807632863521575928e-01 -6.58936798572540283203e-02 -8.05582106113433837891e-02 8.01972299814224243164e-02 -9.88931581377983093262e-02 9.10771787166595458984e-02 7.65211284160614013672e-02 7.73581862449645996094e-02 2.84195225685834884644e-03 2.59854421019554138184e-02 1.07904337346553802490e-01 -2.14698612689971923828e-02 -3.77625636756420135498e-02 -3.66510786116123199463e-02 -7.37785473465919494629e-02 -1.17926247417926788330e-01 -8.58277454972267150879e-02 -6.90268352627754211426e-02 -2.74999774992465972900e-02 6.82099834084510803223e-02 7.57764279842376708984e-02 8.58174487948417663574e-02 7.57216215133666992188e-02 -2.27651502937078475952e-02 7.06206634640693664551e-02 4.16943132877349853516e-02 6.55271625146269798279e-03 -1.32838748395442962646e-02 2.99312490969896316528e-02 3.24085280299186706543e-02 -8.13571270555257797241e-03 1.14326246082782745361e-01 3.59967611730098724365e-02 -1.01373046636581420898e-01 2.23083496093750000000e-02 -7.30503499507904052734e-02 8.49847942590713500977e-02 3.96072268486022949219e-02 -2.66371946781873703003e-02 -3.94428372383117675781e-02 -6.01456209551542997360e-04 6.79781287908554077148e-02 -6.08491487801074981689e-02 -1.13023705780506134033e-01 7.93655514717102050781e-02 1.29950474947690963745e-02 5.40430620312690734863e-02 -7.29399472475051879883e-02 6.72497004270553588867e-02 -5.09207881987094879150e-02 -6.25000745058059692383e-02 4.82726730406284332275e-02 6.24711923301219940186e-02 9.36850830912590026855e-02 3.19066531956195831299e-02 6.90303295850753784180e-02 -7.34188407659530639648e-02 -5.17192371189594268799e-02 -9.99443680047988891602e-02 1.11484117805957794189e-01 6.65516331791877746582e-02 -6.92639723420143127441e-02 -1.48987108841538429260e-02 4.35972750186920166016e-01 3.60606871545314788818e-02 8.50759595632553100586e-02 -4.52974252402782440186e-02 2.32705529779195785522e-02 1.17165660485625267029e-02 -8.37922841310501098633e-03 -6.11933022737503051758e-02 3.64509150385856628418e-02 -1.04680180549621582031e-01 -1.69773902744054794312e-02 5.20626939833164215088e-02 -7.49183371663093566895e-02 2.76502724736928939819e-02 -3.92517782747745513916e-02 -1.08980379998683929443e-01 -8.24543461203575134277e-02 -3.77959124743938446045e-02 6.04210719466209411621e-02 8.17102007567882537842e-03 9.86596122384071350098e-02 7.80660435557365417480e-02 -8.37692394852638244629e-02 7.06087350845336914062e-02 -9.99099090695381164551e-02 -6.84494599699974060059e-02 -6.67379994411021471024e-04 1.38476505875587463379e-01 -7.58015038445591926575e-03 -2.28869356215000152588e-02 5.74430041015148162842e-02 2.90145091712474822998e-02 -9.06959027051925659180e-02 7.45641887187957763672e-02 -6.58419728279113769531e-02 9.63225439190864562988e-02 1.26216396689414978027e-01 9.04997587203979492188e-02 -5.18460609018802642822e-02 1.54797465074807405472e-03 1.63140241056680679321e-02 -1.80953461676836013794e-02 5.16837127506732940674e-02 1.90245479345321655273e-01 -5.90555444359779357910e-02 -6.24805130064487457275e-02 -1.22145498171448707581e-02 6.71544298529624938965e-02 8.14218968152999877930e-02 2.52398638986051082611e-03 8.38942378759384155273e-02 3.17832008004188537598e-02 -7.30527266860008239746e-02 5.54366149008274078369e-02 1.05676893144845962524e-02 9.96222421526908874512e-02 -1.60176698118448257446e-02 4.72891740500926971436e-02 -5.88236488401889801025e-02 8.47480520606040954590e-02 -3.26920114457607269287e-02 1.10219806432723999023e-01 -6.04834519326686859131e-02 -3.90375331044197082520e-02 9.02413576841354370117e-02 -9.38988104462623596191e-02 3.26941050589084625244e-02 1.25133618712425231934e-01 6.25959262251853942871e-02 3.67091335356235504150e-02 -5.24731874465942382812e-02 -5.52665069699287414551e-02 4.82528731226921081543e-02 2.73158177733421325684e-02 -4.48665916919708251953e-02 -6.16311170160770416260e-02 -2.86915563046932220459e-02 2.70111262798309326172e-02 -2.45738383382558822632e-02 -6.53014630079269409180e-02 -9.15548279881477355957e-02 4.57682944834232330322e-02 -8.98218229413032531738e-02 -2.30289138853549957275e-02 8.17204788327217102051e-02 -3.02283484488725662231e-02 1.15872360765933990479e-01 -4.85661514103412628174e-02 1.00662335753440856934e-01 3.73216606676578521729e-02 8.74221250414848327637e-02 2.99114175140857696533e-03 -3.99727337062358856201e-02 4.15988825261592864990e-02 2.23223716020584106445e-02 3.71772162616252899170e-02 1.04311686009168624878e-02 -1.48627189919352531433e-02 -1.82822090573608875275e-03 3.02480887621641159058e-02 -7.19508007168769836426e-02 -1.81586351245641708374e-02 -8.16961899399757385254e-02 5.58766210451722145081e-03 2.64833956956863403320e-01 1.18307992815971374512e-01 2.29275356978178024292e-02 -2.33445200137794017792e-03 3.81479859352111816406e-02 1.24439075589179992676e-01 8.40756818652153015137e-02 -4.16408479213714599609e-02 -6.69744685292243957520e-02 1.34021276608109474182e-02 1.27064008265733718872e-02 2.10021995007991790771e-02 6.04328745976090431213e-03 -5.46091385185718536377e-02 3.69622372090816497803e-02 6.63208914920687675476e-03 -9.59098637104034423828e-02 3.60188223421573638916e-02 -8.91690552234649658203e-02 8.19744467735290527344e-02 1.17445491254329681396e-01 -8.86992178857326507568e-03 3.68384830653667449951e-02 1.84511654078960418701e-02 -4.23990450799465179443e-02 4.26573976874351501465e-02 -1.02021783590316772461e-01 4.96310852468013763428e-02 -5.81011958420276641846e-02 -4.37236018478870391846e-02 7.88225531578063964844e-02 4.31595332920551300049e-02 -6.59373924136161804199e-02 6.63896972656250000000e+02 -1.49995568847656250000e+03 -1.48033618164062500000e+03 -1.49957910156250000000e+03 -1.49783471679687500000e+03 -5.43651733398437500000e+02 -1.46525891113281250000e+03 -3.80063049316406250000e+02 1.49383288574218750000e+03 -1.32686047363281250000e+03 1.49983337402343750000e+03 1.49999340820312500000e+03 -5.54767272949218750000e+02 -7.14215576171875000000e+02 -1.46647668457031250000e+03 -1.49975097656250000000e+03 -8.88108398437500000000e+02 -1.17434020996093750000e+03 -1.49181347656250000000e+03 5.83551086425781250000e+02 -1.49974426269531250000e+03 1.49715820312500000000e+03 -1.49492456054687500000e+03 -1.50000000000000000000e+03 -1.49918115234375000000e+03 -1.49615502929687500000e+03 1.46720971679687500000e+03 2.73779571533203125000e+02 1.49060632324218750000e+03 1.32831115722656250000e+03 -1.49999975585937500000e+03 -1.56209945678710937500e+02 6.88493835449218750000e+02 1.50000000000000000000e+03 6.65101196289062500000e+02 -7.05276000976562500000e+02 1.49264111328125000000e+03 -1.38465258789062500000e+03 -1.47067675781250000000e+03 -1.48262683105468750000e+03 2.51295852661132812500e+01 -1.47332727050781250000e+03 1.49639624023437500000e+03 -1.49614514160156250000e+03 1.49675756835937500000e+03 1.42254455566406250000e+03 -1.49562353515625000000e+03 -1.11217578125000000000e+03 -1.33493457031250000000e+03 1.38547180175781250000e+03 -6.52762451171875000000e+02 -1.39410681152343750000e+03 -1.49997705078125000000e+03 -1.46268750000000000000e+03 -1.46348312377929687500e+02 1.33770117187500000000e+03 1.46608312988281250000e+03 2.46936614990234375000e+02 2.25391296386718750000e+02 -1.49720373535156250000e+03 2.52242248535156250000e+02 1.44280871582031250000e+03 -1.49170214843750000000e+03 -8.25950012207031250000e+02 1.49322766113281250000e+03 -6.86983459472656250000e+02 1.49831384277343750000e+03 -1.29217578125000000000e+03 2.75088012695312500000e+02 -3.79697990417480468750e+01 1.49999804687500000000e+03 -1.49489538574218750000e+03 1.49993786621093750000e+03 2.89560184478759765625e+01 2.88199100494384765625e+01 1.49989831542968750000e+03 -1.49752087402343750000e+03 1.49906555175781250000e+03 1.44428356933593750000e+03 -6.00287536621093750000e+02 -5.05084381103515625000e+02 7.25815551757812500000e+02 1.31997546386718750000e+03 -1.04508030414581298828e+00 -1.49240161132812500000e+03 2.30309280395507812500e+02 -1.10980334472656250000e+03 1.49963439941406250000e+03 1.42334899902343750000e+03 -1.37842810058593750000e+03 -1.02928405761718750000e+03 6.97134826660156250000e+02 9.96663146972656250000e+02 1.49873925781250000000e+03 1.50000000000000000000e+03 1.49999914550781250000e+03 -1.49835522460937500000e+03 -1.47184338378906250000e+03 4.81733489990234375000e+02 1.49999914550781250000e+03 -1.42944262695312500000e+03 1.49936901855468750000e+03 -1.21070945739746093750e+02 1.08826013183593750000e+03 -1.49633911132812500000e+03 -1.40526184082031250000e+03 -1.50000000000000000000e+03 -9.05107666015625000000e+02 -1.44313134765625000000e+03 1.39783447265625000000e+03 1.42990951538085937500e+02 -1.35033361816406250000e+03 1.17139396667480468750e+02 1.50000000000000000000e+03 -1.48722180175781250000e+03 -1.49990441894531250000e+03 -1.49802880859375000000e+03 3.65770843505859375000e+02 1.50000000000000000000e+03 -1.49999768066406250000e+03 -1.49988439941406250000e+03 -1.00139416503906250000e+03 -1.49636950683593750000e+03 -1.49998095703125000000e+03 -1.49999450683593750000e+03 -1.16798864746093750000e+03 -1.31129992675781250000e+03 -1.49682885742187500000e+03 -4.96376838684082031250e+01 1.49948864746093750000e+03 1.49947460937500000000e+03 -1.37959899902343750000e+03 1.49939953613281250000e+03 -1.12470104980468750000e+03 1.20223461914062500000e+03 -1.48157629394531250000e+03 1.49997644042968750000e+03 1.50000000000000000000e+03 -1.29875442504882812500e+02 5.52685424804687500000e+02 -1.49552465820312500000e+03 -1.21910388183593750000e+03 -3.83086486816406250000e+02 -1.48777587890625000000e+03 1.44981762695312500000e+03 1.49999548339843750000e+03 1.49998986816406250000e+03 -1.48256274414062500000e+03 -1.30204943847656250000e+03 1.49943640136718750000e+03 -6.00099609375000000000e+02 1.49993151855468750000e+03 -1.28699255371093750000e+03 -1.40784741210937500000e+03 1.06803906250000000000e+03 -1.49995800781250000000e+03 -9.96671875000000000000e+02 -5.90702819824218750000e+02 -1.49971362304687500000e+03 -1.34559375000000000000e+03 -1.12063964843750000000e+03 5.30004272460937500000e+02 1.49990295410156250000e+03 -2.51719112396240234375e+01 1.49999890136718750000e+03 -1.42002636718750000000e+03 -1.49798571777343750000e+03 3.58794097900390625000e+01 1.41021484375000000000e+03 1.22977996826171875000e+02 -1.50000000000000000000e+03 1.49989294433593750000e+03 1.42795117187500000000e+03 -1.43903063964843750000e+03 8.02232849121093750000e+02 1.03139916992187500000e+03 -1.48533227539062500000e+03 -6.15457031250000000000e+02 -1.48014599609375000000e+03 1.35345837402343750000e+03 -1.50000000000000000000e+03 1.36891235351562500000e+03 1.31972900390625000000e+03 1.49999353027343750000e+03 2.98216888427734375000e+02 1.49137390136718750000e+03 8.55045654296875000000e+02 1.49999963378906250000e+03 1.49999047851562500000e+03 7.87861145019531250000e+02 -4.46369689941406250000e+02 -1.46410327148437500000e+03 -1.50000000000000000000e+03 8.46780578613281250000e+02 1.49767761230468750000e+03 1.49999096679687500000e+03 -1.40648889160156250000e+03 1.49995214843750000000e+03 1.49988012695312500000e+03 -9.43398590087890625000e+01 6.93443832397460937500e+01 1.49999658203125000000e+03 -4.20343017578125000000e+02 1.50000000000000000000e+03 1.26592565917968750000e+03 1.49635241699218750000e+03 1.49844165039062500000e+03 -1.49819787597656250000e+03 -9.82749145507812500000e+02 -8.86485168457031250000e+02 -1.49993688964843750000e+03 1.49109399414062500000e+03 1.49999157714843750000e+03 -1.06041198730468750000e+03 -1.49482141113281250000e+03 1.50000000000000000000e+03 1.40091296386718750000e+03 1.49950988769531250000e+03 -1.46690563964843750000e+03 6.01617431640625000000e+02 5.78966552734375000000e+02 1.47226062011718750000e+03 -1.39149609375000000000e+03 -4.75412597656250000000e+01 1.31767761230468750000e+03 -2.53670608520507812500e+02 1.34722766113281250000e+03 3.44489929199218750000e+02 6.50954742431640625000e+01 -1.48824743652343750000e+03 1.49978588867187500000e+03 -1.49995922851562500000e+03 -1.49995935058593750000e+03 -1.49749926757812500000e+03 -1.49991467285156250000e+03 1.46847668457031250000e+03 -1.49997155761718750000e+03 5.45001647949218750000e+02 3.37182342529296875000e+02 -1.50000000000000000000e+03 2.19722000122070312500e+02 -1.49998913574218750000e+03 1.49504248046875000000e+03 -1.47610046386718750000e+03 -1.26754455566406250000e+03 4.29178680419921875000e+02 1.34397863769531250000e+03 1.49975842285156250000e+03 9.96937194824218750000e+02 1.48613781738281250000e+03 -1.28357543945312500000e+03 -1.48282177734375000000e+03 -1.49679406738281250000e+03 4.48613494873046875000e+02 -3.01772674560546875000e+02 2.17594116210937500000e+02 -3.95616054534912109375e-01 -1.93290784955024719238e-02 -3.26586067676544189453e-02 -6.35618716478347778320e-02 -2.07731187343597412109e-01 -1.03498183190822601318e-01 -9.27905365824699401855e-02 -5.72691522538661956787e-02 3.84672693908214569092e-02 5.65151050686836242676e-02 -4.52190600335597991943e-02 -2.44193486869335174561e-02 1.24184988439083099365e-01 9.88367851823568344116e-03 6.87100663781166076660e-02 1.14984534680843353271e-01 3.69443893432617187500e-02 -7.32010006904602050781e-02 -4.07123155891895294189e-02 -1.86460968106985092163e-02 -1.53254270553588867188e-02 -1.25575616955757141113e-01 -7.99867603927850723267e-03 7.85285159945487976074e-02 8.00330750644207000732e-03 -4.49519492685794830322e-02 -8.62974077463150024414e-02 -2.35161289572715759277e-01 -3.67401470430195331573e-03 2.74863839149475097656e-02 1.41444522887468338013e-02 -2.61507350951433181763e-02 8.41900855302810668945e-02 7.13417604565620422363e-02 5.54516837000846862793e-02 5.11285010725259780884e-03 -5.89256025850772857666e-02 -2.53567453473806381226e-02 4.85668256878852844238e-02 -9.90284606814384460449e-03 2.22550816833972930908e-02 8.40873569250106811523e-02 5.77417254447937011719e-01 -7.08142369985580444336e-02 -2.37272605299949645996e-01 -8.28910768032073974609e-02 3.97949963808059692383e-02 1.95310451090335845947e-02 3.26926968991756439209e-02 -5.57508543133735656738e-02 -5.62697090208530426025e-03 1.31303761154413223267e-02 1.98936820030212402344e-01 -4.98679131269454956055e-02 -5.85206300020217895508e-02 -3.61644700169563293457e-02 5.70461079478263854980e-02 1.91702134907245635986e-02 -4.01650415733456611633e-03 -8.78117829561233520508e-02 -8.42629894614219665527e-02 4.05173795297741889954e-03 5.99562525749206542969e-02 5.23270852863788604736e-02 9.38414335250854492188e-02 9.34141129255294799805e-02 -1.28929197788238525391e-01 -1.32391333580017089844e-01 -7.94953778386116027832e-02 -2.72976607084274291992e-02 -9.37071666121482849121e-02 -6.40811631456017494202e-03 -3.59509512782096862793e-02 8.58842283487319946289e-02 -9.57627370953559875488e-02 -2.61278767138719558716e-02 4.91908229887485504150e-02 5.70034384727478027344e-02 4.24394197762012481689e-02 -1.96605082601308822632e-02 6.73263445496559143066e-02 -7.06664025783538818359e-02 -8.85350182652473449707e-02 4.53956983983516693115e-03 2.29019224643707275391e-02 3.62503714859485626221e-02 3.31335701048374176025e-02 -1.19745610281825065613e-02 6.24648528173565864563e-04 -7.35578462481498718262e-02 -5.22012971341609954834e-02 -9.54338163137435913086e-02 -7.57380798459053039551e-02 -7.85436555743217468262e-02 -6.34874626994132995605e-02 6.43248483538627624512e-02 -1.61337070167064666748e-02 -2.60579194873571395874e-02 7.66313374042510986328e-02 -1.10678169876337051392e-02 -7.38585591316223144531e-02 -2.60515566915273666382e-02 -3.97537142038345336914e-01 -4.79559116065502166748e-02 -3.18814255297183990479e-02 -8.16641375422477722168e-02 -3.34149934351444244385e-02 -8.26428309082984924316e-02 8.66788998246192932129e-02 2.04828441143035888672e-01 1.32121026515960693359e-01 3.47363390028476715088e-02 -3.73836345970630645752e-02 -6.16119764745235443115e-02 3.78513410687446594238e-02 1.35911107063293457031e-01 -1.22818008065223693848e-01 8.34237113595008850098e-02 -5.25468550622463226318e-02 -8.32483172416687011719e-02 -5.29418826103210449219e-01 -5.75108289718627929688e-01 -6.54944255948066711426e-02 -2.42712646722793579102e-01 5.08335679769515991211e-02 3.66991385817527770996e-03 -3.51262353360652923584e-02 -3.30380164086818695068e-02 6.57366588711738586426e-02 -3.10425460338592529297e-02 3.46179981715977191925e-03 5.29103502631187438965e-02 -2.99563650041818618774e-02 8.11077132821083068848e-02 -5.69677278399467468262e-02 -5.56082054972648620605e-02 -3.90153199434280395508e-01 -7.29495882987976074219e-02 -5.56435994803905487061e-03 2.19703298062086105347e-02 -6.07405304908752441406e-02 7.42380842566490173340e-02 7.01565621420741081238e-03 -7.25579336285591125488e-02 -3.72603489086031913757e-03 1.14771090447902679443e-02 2.42116332054138183594e-01 7.42241442203521728516e-02 -1.83543581515550613403e-02 -3.36961969733238220215e-02 6.15172684192657470703e-01 -6.50068819522857666016e-02 9.45718064904212951660e-02 -4.06925417482852935791e-02 2.93345004320144653320e-01 1.53158202767372131348e-01 -8.20709615945816040039e-02 -7.37019702792167663574e-02 7.82733708620071411133e-02 -2.17976719141006469727e-01 -9.09055694937705993652e-02 -3.47448974847793579102e-01 -6.37833699584007263184e-02 6.11404180526733398438e-02 1.90269768238067626953e-01 6.46244287490844726562e-02 -4.27304469048976898193e-02 -7.51331225037574768066e-02 -3.14405448734760284424e-02 -1.62874862551689147949e-01 -1.44067790824919939041e-03 5.48408366739749908447e-02 9.07619297504425048828e-02 -4.02540147304534912109e-01 -9.95844528079032897949e-02 7.83990919589996337891e-02 -6.04102760553359985352e-02 1.43382204696536064148e-02 7.50274583697319030762e-03 1.20317190885543823242e-02 2.70906183868646621704e-02 -4.85577061772346496582e-03 1.74312107264995574951e-02 -3.44953648746013641357e-02 8.62622782588005065918e-02 6.82695358991622924805e-02 5.56046292185783386230e-02 -4.88758273422718048096e-02 7.32926428318023681641e-02 -6.43214285373687744141e-02 3.12630310654640197754e-02 3.86367115424945950508e-04 1.29624396562576293945e-01 2.81418883241713047028e-03 -9.28123444318771362305e-02 1.12522698938846588135e-01 -2.36262790858745574951e-02 -5.78083805739879608154e-02 -6.51547359302639961243e-03 1.16073116660118103027e-01 9.88673493266105651855e-02 -9.33890864253044128418e-02 3.00776697695255279541e-02 1.79162874817848205566e-01 5.80812292173504829407e-03 2.17155233025550842285e-01 -1.69330891221761703491e-02 2.30180611833930015564e-03 1.48858264088630676270e-01 -8.35570245981216430664e-02 -1.43085345625877380371e-02 -1.03862345218658447266e-01 7.83380717039108276367e-02 3.85919362306594848633e-02 -8.67861434817314147949e-02 -6.56166225671768188477e-02 -7.28023350238800048828e-02 2.37307101488113403320e-02 -1.49224579334259033203e-01 1.29285817965865135193e-02 -7.84535929560661315918e-02 7.16150775551795959473e-02 -8.59519317746162414551e-02 -2.60122448205947875977e-01 7.59041160345077514648e-02 -1.68338641524314880371e-02 -3.20026651024818420410e-02 -6.80379718542098999023e-02 -4.43736128509044647217e-02 3.85610163211822509766e-02 -2.21592023968696594238e-01 4.63422155007719993591e-03 -4.98558580875396728516e-02 -1.40174686908721923828e-01 -2.33328938484191894531e-02 8.09096470475196838379e-02 1.11680552363395690918e-01 2.74526681751012802124e-02 1.67179673910140991211e-01 1.08236223459243774414e-02 -8.81665050983428955078e-02 -1.10595948994159698486e-01 9.15971770882606506348e-02 7.75101110339164733887e-02 -4.57304809242486953735e-03 -4.58176694810390472412e-02 -8.76067280769348144531e-02 2.00414776802062988281e-01 -7.18522369861602783203e-02 4.31695170700550079346e-02 -1.39825567603111267090e-01 -5.56784272193908691406e-02 -4.01411205530166625977e-02 -1.70575305819511413574e-02 -4.33036200702190399170e-02 8.79835933446884155273e-02 -2.00724601745605468750e-02 -9.81940478086471557617e-02 1.49944287109375000000e+03 1.39384606933593750000e+03 1.49999499511718750000e+03 1.49602404785156250000e+03 -1.49466784667968750000e+03 -1.49514782714843750000e+03 6.75434082031250000000e+02 -1.47789746093750000000e+03 -1.45439916992187500000e+03 -3.06657440185546875000e+02 -1.59433868408203125000e+02 -8.54554809570312500000e+02 -1.36402636718750000000e+03 1.01833905029296875000e+03 1.49994494628906250000e+03 -1.48492590332031250000e+03 1.49679138183593750000e+03 6.71002136230468750000e+02 1.49998278808593750000e+03 -1.49600964355468750000e+03 6.85370117187500000000e+02 1.48991223144531250000e+03 -1.48497790527343750000e+03 -1.45290600585937500000e+03 1.49817846679687500000e+03 1.50000000000000000000e+03 1.49994873046875000000e+03 1.49991516113281250000e+03 1.49942797851562500000e+03 7.48646606445312500000e+02 1.03139758300781250000e+03 1.48513073730468750000e+03 -1.50000000000000000000e+03 1.50000000000000000000e+03 -1.49287512207031250000e+03 -1.39336987304687500000e+03 1.49991064453125000000e+03 1.50000000000000000000e+03 -1.41200000000000000000e+03 -1.47551049804687500000e+03 4.53211700439453125000e+02 1.49792163085937500000e+03 -9.84057983398437500000e+02 -1.48644152832031250000e+03 7.28992370605468750000e+02 1.50000000000000000000e+03 1.49191284179687500000e+03 7.97056701660156250000e+02 -1.08905187988281250000e+03 -1.37634631347656250000e+03 8.78441406250000000000e+02 -5.53164184570312500000e+02 1.48934558105468750000e+03 1.48158129882812500000e+03 1.25132141113281250000e+03 1.49557336425781250000e+03 -1.48849304199218750000e+03 1.49999670410156250000e+03 -1.48148046875000000000e+03 1.49997851562500000000e+03 9.17443725585937500000e+02 -8.70507736206054687500e+01 1.49625781250000000000e+03 -1.49736950683593750000e+03 -1.98894748687744140625e+01 -1.37970361328125000000e+03 -4.29601226806640625000e+02 1.49999548339843750000e+03 1.49977478027343750000e+03 -1.03555993652343750000e+03 -1.49452905273437500000e+03 1.50000000000000000000e+03 1.49999914550781250000e+03 -1.49994946289062500000e+03 -1.49838452148437500000e+03 -1.49732873535156250000e+03 -1.54793380737304687500e+02 1.49581176757812500000e+03 1.47572631835937500000e+03 1.47976330566406250000e+03 -2.23167526245117187500e+02 -3.16124786376953125000e+02 -6.98748291015625000000e+02 4.58801910400390625000e+02 1.50000000000000000000e+03 -1.32709484863281250000e+03 1.49999877929687500000e+03 -2.04282241821289062500e+02 1.48989465332031250000e+03 1.50000000000000000000e+03 1.50000000000000000000e+03 1.49910473632812500000e+03 1.50000000000000000000e+03 1.49999890136718750000e+03 -1.18631054687500000000e+03 1.03413403320312500000e+03 -1.33177087402343750000e+03 -1.70506851196289062500e+02 1.49999511718750000000e+03 1.50000000000000000000e+03 -1.49834277343750000000e+03 -1.47479101562500000000e+03 -1.37678234863281250000e+03 -1.49975415039062500000e+03 1.02445202636718750000e+03 -1.49678210449218750000e+03 -1.15312414550781250000e+03 -3.33181838989257812500e+01 1.48991076660156250000e+03 1.48498608398437500000e+03 -1.29130310058593750000e+03 -1.49966992187500000000e+03 -1.49749108886718750000e+03 -6.60625183105468750000e+02 -1.49238720703125000000e+03 -1.50000000000000000000e+03 -1.47821289062500000000e+03 -1.49898168945312500000e+03 -1.38910290527343750000e+03 -1.49555334472656250000e+03 -1.49996569824218750000e+03 6.77554809570312500000e+02 -2.22207824707031250000e+02 -1.25246496582031250000e+03 -1.50000000000000000000e+03 1.49996630859375000000e+03 -1.42935754394531250000e+03 1.50000000000000000000e+03 1.49999377441406250000e+03 -1.38271862792968750000e+03 1.48290795898437500000e+03 -1.49991064453125000000e+03 -1.40524816894531250000e+03 1.47524291992187500000e+03 -1.49561230468750000000e+03 -1.46125463867187500000e+03 -1.44827160644531250000e+03 1.50000000000000000000e+03 1.50000000000000000000e+03 1.49831921386718750000e+03 -1.43850439453125000000e+03 1.50000000000000000000e+03 -6.92475036621093750000e+02 -1.48750610351562500000e+03 -1.39726379394531250000e+03 -1.26579748535156250000e+03 -1.67376907348632812500e+02 1.49999890136718750000e+03 -1.44932104492187500000e+03 3.10740875244140625000e+02 -1.49353002929687500000e+03 -1.47668957519531250000e+03 -1.49809741210937500000e+03 7.97985351562500000000e+02 1.49029577636718750000e+03 6.85257751464843750000e+02 7.79761535644531250000e+02 1.49983166503906250000e+03 -5.18874633789062500000e+02 -1.44414270019531250000e+03 -1.49993298339843750000e+03 -9.84550476074218750000e+02 -1.03800769042968750000e+03 -8.22860900878906250000e+02 -1.49999523925781250000e+03 1.49941345214843750000e+03 1.50000000000000000000e+03 1.98521820068359375000e+02 1.50000000000000000000e+03 -1.46684313964843750000e+03 -1.40378271484375000000e+03 -1.44435083007812500000e+03 -1.49833984375000000000e+03 -5.10730712890625000000e+02 8.05544555664062500000e+02 -1.35941442871093750000e+03 -1.45196997070312500000e+03 1.49999987792968750000e+03 1.20564445495605468750e+02 1.49014196777343750000e+03 1.49999914550781250000e+03 1.49995922851562500000e+03 -1.49511401367187500000e+03 1.49977624511718750000e+03 1.49034399414062500000e+03 -7.52964172363281250000e+02 -1.48396960449218750000e+03 8.54363403320312500000e+01 1.48980541992187500000e+03 1.49994030761718750000e+03 -1.12851220703125000000e+03 -1.43054675292968750000e+03 -1.49825439453125000000e+03 -1.49677587890625000000e+03 -1.49503356933593750000e+03 1.49997692871093750000e+03 1.49856164550781250000e+03 -1.49896228027343750000e+03 -1.49913293457031250000e+03 1.48919946289062500000e+03 -1.27487243652343750000e+03 -1.50000000000000000000e+03 -1.38442883300781250000e+03 -1.48679321289062500000e+03 -1.50000000000000000000e+03 1.49768395996093750000e+03 -1.47456823730468750000e+03 -8.03464477539062500000e+02 1.49933483886718750000e+03 1.48843408203125000000e+03 1.50000000000000000000e+03 1.46902441406250000000e+03 -1.48721472167968750000e+03 -1.49999304199218750000e+03 -4.97181823730468750000e+02 -1.49969604492187500000e+03 -1.49995397949218750000e+03 -1.47637927246093750000e+03 1.48327075195312500000e+03 1.43110046386718750000e+03 1.49999499511718750000e+03 -1.40764416503906250000e+03 7.92642639160156250000e+02 1.38424499511718750000e+03 1.49991992187500000000e+03 1.30853393554687500000e+03 -1.20257031250000000000e+03 1.49884411621093750000e+03 -1.50000000000000000000e+03 1.25996899414062500000e+03 1.50000000000000000000e+03 1.50000000000000000000e+03 -1.17790185546875000000e+03 -1.49999975585937500000e+03 1.49916613769531250000e+03 1.50000000000000000000e+03 1.49981994628906250000e+03 1.49213598632812500000e+03 1.10799194335937500000e+03 1.39112475585937500000e+03 1.42205859375000000000e+03 1.48895324707031250000e+03 1.50000000000000000000e+03 4.89398559570312500000e+02 1.47215417480468750000e+03 1.48559423828125000000e+03 -1.49992639160156250000e+03 5.31624877929687500000e+02 -8.64684753417968750000e+01 -1.50000000000000000000e+03 1.49999975585937500000e+03 1.49999938964843750000e+03 1.50000000000000000000e+03 -1.49581872558593750000e+03 1.39720812988281250000e+03 -1.01223767089843750000e+03 -4.05739277601242065430e-01 4.32928711175918579102e-01 -1.35919439792633056641e+00 -3.44947957992553710938e+00 -1.37627685070037841797e+00 9.21410501003265380859e-01 -5.51845803856849670410e-02 -7.91860580444335937500e-01 2.56575155258178710938e+00 -3.17222982645034790039e-01 1.10652074217796325684e-01 -8.34114074707031250000e-01 -3.34799504280090332031e+00 -1.58587276935577392578e+00 -8.09866666793823242188e-01 -1.10694098472595214844e+00 1.94114372134208679199e-01 8.97168666124343872070e-02 -1.28064084053039550781e+00 6.34675383567810058594e-01 -1.81458544731140136719e+00 -2.53472542762756347656e+00 -2.04925894737243652344e+00 6.31038069725036621094e-01 1.14746701717376708984e+00 1.72600579261779785156e+00 -1.97898745536804199219e+00 -1.70859646797180175781e+00 -1.97240364551544189453e+00 -5.54262340068817138672e-01 2.30620443820953369141e-01 -4.50940817594528198242e-01 -7.28446841239929199219e-01 -4.33657455444335937500e+00 4.61188554763793945312e-01 -3.17709660530090332031e+00 -2.67557978630065917969e-01 2.01120543479919433594e+00 -4.40829849243164062500e+00 -4.25592869520187377930e-01 1.10140132904052734375e+00 1.48200154304504394531e+00 -6.27260923385620117188e-01 -3.18732404708862304688e+00 -2.16319251060485839844e+00 7.42302760481834411621e-02 -9.46187674999237060547e-01 -1.04180598258972167969e+00 3.63098025321960449219e-01 1.59820687770843505859e+00 8.79583358764648437500e-01 9.88833785057067871094e-01 9.89720582962036132812e-01 2.09170126914978027344e+00 9.54331517219543457031e-01 4.44912821054458618164e-01 -1.81289422512054443359e+00 1.24153852462768554688e+00 -1.01956772804260253906e+00 -1.50067615509033203125e+00 -6.26306906342506408691e-02 2.78321337699890136719e+00 -1.16516470909118652344e+00 -2.45812132954597473145e-01 5.89843213558197021484e-01 -2.30515569448471069336e-01 -1.02498316764831542969e+00 -1.60633265972137451172e+00 4.06917333602905273438e-01 -2.29764953255653381348e-01 8.61543178558349609375e-01 1.24239534139633178711e-01 1.62717306613922119141e+00 -2.49551191926002502441e-01 -9.91921484470367431641e-01 5.92748403549194335938e-01 7.06947207450866699219e-01 1.38511911034584045410e-01 1.13697469234466552734e+00 6.98277680203318595886e-03 6.02550923824310302734e-01 -6.49441838264465332031e-01 1.58222627639770507812e+00 -1.81254112720489501953e+00 -1.48622739315032958984e+00 1.13526892662048339844e+00 -1.77779600024223327637e-01 4.89727370440959930420e-02 -3.62523913383483886719e-01 5.63622176647186279297e-01 -1.48734688758850097656e-01 -1.50006115436553955078e+00 5.11885702610015869141e-01 1.21130108833312988281e+00 4.06331300735473632812e-01 -9.89803895354270935059e-02 4.28199023008346557617e-01 8.62531065940856933594e-01 -4.76625055074691772461e-01 2.32035517692565917969e+00 -2.93574482202529907227e-02 -5.02437055110931396484e-01 1.30761682987213134766e+00 7.65440389513969421387e-02 1.00469791889190673828e+00 3.11960250139236450195e-01 4.08420085906982421875e-01 -9.62458372116088867188e-01 -5.16950607299804687500e-01 -1.07855632901191711426e-01 7.77986288070678710938e-01 -3.91262173652648925781e-01 -3.81832361221313476562e-01 -4.23713207244873046875e-01 -9.54893589019775390625e-01 -2.82841652631759643555e-01 2.91064834594726562500e+00 -6.73635125160217285156e-01 -4.85209286212921142578e-01 -4.90960516035556793213e-02 1.67401468753814697266e+00 7.47150123119354248047e-01 -7.50562429428100585938e-01 1.08838148415088653564e-01 5.04960000514984130859e-01 -2.20034167170524597168e-01 5.20657718181610107422e-01 -3.25307577848434448242e-01 3.56502890586853027344e-01 -1.39415156841278076172e+00 -4.72749203443527221680e-01 -4.98062223196029663086e-01 6.60546779632568359375e-01 -1.41638553142547607422e+00 -5.51453649997711181641e-01 1.94015824794769287109e+00 -6.14304244518280029297e-01 -6.89904391765594482422e-01 -1.19074493646621704102e-01 1.89949497580528259277e-01 -7.43277847766876220703e-01 6.13843977451324462891e-01 3.27381670475006103516e-01 1.36910951137542724609e+00 2.32412862777709960938e+00 -4.07309532165527343750e-01 -6.14522278308868408203e-01 6.38973236083984375000e-01 -2.38734388351440429688e+00 -1.20779955387115478516e+00 -9.02739316225051879883e-02 -2.37775564193725585938e+00 -2.73802185058593750000e+00 -2.58037662506103515625e+00 -6.26553535461425781250e-01 8.05971324443817138672e-01 -8.49819839000701904297e-01 3.95966500043869018555e-01 -1.09910535812377929688e+00 -2.29566264897584915161e-02 -4.34574365615844726562e-01 -1.29294678568840026855e-01 -1.56456625461578369141e+00 9.18215870857238769531e-01 -5.23671090602874755859e-01 -1.51450622081756591797e+00 5.93627132475376129150e-02 5.70210777223110198975e-02 -1.11470484733581542969e+00 -2.75581502914428710938e+00 8.98896634578704833984e-01 1.36230599880218505859e+00 1.79236054420471191406e+00 2.40355348587036132812e+00 1.11152315139770507812e+00 -2.06365376710891723633e-01 -1.84535098075866699219e+00 3.75577621161937713623e-02 -7.23428845405578613281e-01 3.90599548816680908203e-01 -4.10465478897094726562e-01 1.43743947148323059082e-01 -1.22712457180023193359e+00 2.00284886360168457031e+00 -7.38408803939819335938e-01 1.32691845297813415527e-01 9.13863778114318847656e-01 1.08211316168308258057e-01 -2.18952298164367675781e+00 -1.29979074001312255859e+00 -2.74225783348083496094e+00 -6.73190355300903320312e-01 -6.91189527511596679688e-01 5.69243133068084716797e-01 -2.08341598510742187500e+00 1.63867163658142089844e+00 -1.15876302123069763184e-01 2.15666443109512329102e-01 -4.02449703216552734375e+00 -2.54071146249771118164e-01 -3.23935717344284057617e-01 -4.28550332784652709961e-01 -6.72924876213073730469e-01 -1.59409546852111816406e+00 -1.98657071590423583984e+00 -6.11517965793609619141e-01 3.16068410873413085938e-01 -3.88739109039306640625e+00 -3.33345979452133178711e-01 2.32944536209106445312e+00 -2.05871009826660156250e+00 1.04732966423034667969e+00 -2.51602673530578613281e+00 2.22757363319396972656e+00 1.25350892543792724609e-01 -4.40781801939010620117e-01 7.81788229942321777344e-01 -3.26816630363464355469e+00 -7.01999485492706298828e-01 8.21516156196594238281e-01 1.16503864526748657227e-01 -4.23175483942031860352e-01 -5.04579782485961914062e-01 -8.23870062828063964844e-01 -1.24900841712951660156e+00 -7.08159208297729492188e-01 -1.35999917984008789062e+00 -1.57566130161285400391e-01 9.06510174274444580078e-01 5.58881938457489013672e-01 1.63598608970642089844e+00 1.58961355686187744141e+00 1.02563071250915527344e+00 -5.33814914524555206299e-03 1.87370812892913818359e+00 1.01487290859222412109e+00 2.95119225978851318359e-01 -1.48995149135589599609e+00 -1.70663166046142578125e+00 6.11688375473022460938e-01 1.72716021537780761719e+00 3.21282029151916503906e-01 -2.48455762863159179688e-01 -9.99480843544006347656e-01 7.87405371665954589844e-01 7.79031395912170410156e-01 1.61560595035552978516e-01 -1.06423266232013702393e-01 -4.33995783329010009766e-01 8.91408503055572509766e-01 1.60989320278167724609e+00 1.38578629493713378906e+00 1.17362892627716064453e+00 4.74063813686370849609e-01 -1.25064349174499511719e+00 1.93856024742126464844e+00 1.66038548946380615234e+00 -6.61574482917785644531e-01 -1.47749975323677062988e-01 5.19126020371913909912e-02 9.75452661514282226562e-02 -7.23217874765396118164e-02 -2.63626240193843841553e-02 -1.12674087285995483398e-01 7.06174671649932861328e-02 7.09049105644226074219e-02 4.65177856385707855225e-02 -9.02424380183219909668e-02 1.03492654860019683838e-01 9.17993187904357910156e-02 9.29778814315795898438e-02 3.26057337224483489990e-02 -4.35741208493709564209e-02 -4.29532766342163085938e-01 -7.28066787123680114746e-02 1.01292438805103302002e-01 8.98158084601163864136e-03 -5.50452321767807006836e-02 5.25588542222976684570e-02 4.90752726793289184570e-01 4.56870824564248323441e-04 1.76493916660547256470e-02 -2.04696282744407653809e-02 -4.60202246904373168945e-02 4.22069355845451354980e-02 -8.06499049067497253418e-02 -1.16884075105190277100e-02 8.77393707633018493652e-02 -9.66454297304153442383e-02 1.77305168472230434418e-03 -8.30637514591217041016e-02 -5.36330752074718475342e-02 -5.52932806313037872314e-02 6.99633881449699401855e-02 -4.13509868085384368896e-02 5.31188584864139556885e-02 -9.49084982275962829590e-02 -4.13709506392478942871e-03 1.59631788730621337891e-01 2.88690961897373199463e-02 9.93087366223335266113e-02 8.30195695161819458008e-02 1.54909156262874603271e-02 7.36920535564422607422e-02 -1.05614215135574340820e-01 5.50449602305889129639e-02 -6.13981299102306365967e-02 7.66603127121925354004e-02 -5.57718873023986816406e-02 1.79145038127899169922e-02 -8.26202034950256347656e-02 -3.27070653438568115234e-02 4.48921844363212585449e-02 2.00286656618118286133e-02 -1.01693645119667053223e-01 -4.62909974157810211182e-02 1.00788548588752746582e-02 -9.44450944662094116211e-02 -4.97596301138401031494e-02 -2.58721411228179931641e-02 -7.79015719890594482422e-02 8.29847082495689392090e-02 8.15570726990699768066e-02 -3.07133905589580535889e-02 -2.54397429525852203369e-02 6.44673965871334075928e-03 -9.69214364886283874512e-02 -6.34320005774497985840e-02 2.82988771796226501465e-02 7.64297544956207275391e-02 -1.03607103228569030762e-01 4.34866473078727722168e-02 -2.15813834220170974731e-02 -2.24074330180883407593e-02 -6.69605238363146781921e-03 -8.23095366358757019043e-02 -1.82568013668060302734e-01 -1.04722473770380020142e-02 -6.50069490075111389160e-02 -3.11917569488286972046e-02 7.50838890671730041504e-02 -5.68714216351509094238e-02 -1.00115109235048294067e-02 -4.14963774383068084717e-02 2.06467300653457641602e-01 3.20488922297954559326e-02 -3.79093326628208160400e-02 -2.42575947195291519165e-02 -6.73269480466842651367e-02 2.16958988457918167114e-02 1.27270847558975219727e-01 -3.62099111080169677734e-02 7.51666398718953132629e-03 7.44519755244255065918e-03 -6.63013011217117309570e-02 -1.38193378224968910217e-02 -7.83606320619583129883e-02 4.94752153754234313965e-02 -3.68573404848575592041e-02 -3.25938872992992401123e-02 -1.36680984869599342346e-02 5.94079606235027313232e-02 1.13657914102077484131e-01 -5.93882910907268524170e-02 4.62202318012714385986e-02 -6.82077035307884216309e-02 8.35271999239921569824e-02 6.56557604670524597168e-02 7.50099122524261474609e-02 -8.96601304411888122559e-02 -1.00493676960468292236e-01 5.17289061099290847778e-03 -1.07792774215340614319e-02 -3.94444838166236877441e-02 2.42827218025922775269e-02 2.30523925274610519409e-02 1.06096357107162475586e-01 -3.93019430339336395264e-02 6.83219311758875846863e-03 1.40932956710457801819e-02 5.61937643215060234070e-03 5.48445694148540496826e-02 -1.23168088495731353760e-01 4.94421087205410003662e-02 -9.46327894926071166992e-02 -1.79023705422878265381e-02 -1.62535950541496276855e-01 6.65649697184562683105e-02 -8.71024653315544128418e-03 2.33150948770344257355e-03 1.43341079354286193848e-01 7.63278678059577941895e-02 -9.25223976373672485352e-02 9.59272161126136779785e-02 7.78974741697311401367e-02 -3.08274090290069580078e-01 -7.41086259949952363968e-04 -2.57195401936769485474e-02 -9.13571864366531372070e-02 5.59909343719482421875e-02 -2.12208312004804611206e-02 4.22854870557785034180e-02 2.97011602669954299927e-02 -6.13317340612411499023e-02 4.19523529708385467529e-02 -3.67987644858658313751e-03 -9.72860679030418395996e-02 -1.12701237201690673828e-01 7.23317936062812805176e-02 -2.94894501566886901855e-02 2.42158398032188415527e-02 -2.50157695263624191284e-02 -6.68911561369895935059e-02 8.74290838837623596191e-02 -5.86977340281009674072e-02 -3.27931828796863555908e-02 -6.86339214444160461426e-02 -3.86828854680061340332e-02 -2.33832676894962787628e-03 6.97032883763313293457e-02 6.05343878269195556641e-02 5.62996156513690948486e-02 -4.38235342502593994141e-01 -2.30541042983531951904e-02 9.46548730134963989258e-02 5.88758960366249084473e-02 7.53490477800369262695e-02 2.56691090762615203857e-02 -1.89165491610765457153e-02 -1.10812254250049591064e-01 -1.80558767169713973999e-03 4.15135622024536132812e-02 4.01250235736370086670e-02 -5.77289760112762451172e-02 -2.11905352771282196045e-02 3.25140133500099182129e-02 7.74782523512840270996e-02 -5.37489168345928192139e-02 -1.42734032124280929565e-02 7.95769542455673217773e-02 -8.26774090528488159180e-02 -6.98023140430450439453e-02 9.51799899339675903320e-02 3.62772494554519653320e-02 -2.59948614984750747681e-02 -4.22622747719287872314e-02 9.46757122874259948730e-02 -4.67143431305885314941e-02 2.02373974025249481201e-02 5.19382730126380920410e-02 -9.74298547953367233276e-03 -8.59695971012115478516e-02 2.04901322722434997559e-02 8.28450266271829605103e-03 -7.17664286494255065918e-02 -8.12783911824226379395e-02 2.49923416413366794586e-03 -2.83790882676839828491e-02 -3.32682579755783081055e-02 -1.03454599156975746155e-02 -1.50685629341751337051e-03 -3.86355668306350708008e-02 2.71160379052162170410e-02 -9.14840102195739746094e-02 -1.21321991086006164551e-01 -8.75239074230194091797e-02 -7.49183259904384613037e-03 1.85587815940380096436e-02 6.25995025038719177246e-02 3.40723223052918910980e-03 -3.10917142778635025024e-02 -1.00537603721022605896e-02 6.58162459731101989746e-02 -6.61464184522628784180e-02 -3.92940677702426910400e-02 -8.87993071228265762329e-03 1.54794435948133468628e-02 6.51878397911787033081e-03 -1.09344191849231719971e-01 -7.76000916957855224609e-02 -3.18326577544212341309e-02 -4.54379990696907043457e-02 -4.13164868950843811035e-02 2.35331542789936065674e-02 8.44703391194343566895e-02 -7.03128874301910400391e-02 -4.13453765213489532471e-02 -5.20640462636947631836e-02 5.96335642039775848389e-02 4.98278774321079254150e-02 1.40418544411659240723e-01 1.11907906830310821533e-01 -9.78764053434133529663e-03 9.55957770347595214844e-02 -9.54669266939163208008e-02 7.23095610737800598145e-02 -8.86543244123458862305e-02 -3.00964135676622390747e-02 -1.74584388732910156250e-02 -4.03147079050540924072e-02 -8.13198089599609375000e-02 -3.95377762615680694580e-02 6.51972666382789611816e-02 1.83837655931711196899e-02 -4.76690158247947692871e-02 1.19203977286815643311e-01 8.68304222822189331055e-02 2.91507355868816375732e-02 3.08367554098367691040e-02 1.22176657896488904953e-03 -7.74612724781036376953e-02 -5.80020397901535034180e-02 -5.46849779784679412842e-02 -1.90395135432481765747e-02 -1.30665704607963562012e-01 -2.77716405689716339111e-02 4.46020588278770446777e-02 -1.53174763545393943787e-02 7.19762668013572692871e-02 6.83058872818946838379e-02 -7.98032805323600769043e-02 7.03524947166442871094e-02 5.94503022730350494385e-02 -1.38701930642127990723e-01 2.86532998085021972656e-01 4.10106480121612548828e-02 -4.23664674162864685059e-02 2.02706139534711837769e-02 -8.66820514202117919922e-02 -7.83903673291206359863e-02 2.14439406991004943848e-02 -1.74084082245826721191e-02 -6.95565566420555114746e-02 1.93327646702527999878e-02 7.32789263129234313965e-02 1.98946520686149597168e-02 -5.50077520310878753662e-02 7.71247074007987976074e-02 -5.86026050150394439697e-02 7.43846893310546875000e-02 4.05284464359283447266e-02 -2.90358122438192367554e-02 -6.00923374295234680176e-02 8.86678323149681091309e-02 -7.91671872138977050781e-02 6.57902956008911132812e-02 7.13932737708091735840e-02 1.07042044401168823242e-01 -4.54883724451065063477e-02 1.68393971398472785950e-03 3.26507568359375000000e-01 1.00386567413806915283e-01 6.68268129229545593262e-02 -3.93433421850204467773e-02 -1.42914876341819763184e-01 7.85840302705764770508e-03 2.11117193102836608887e-02 4.05307300388813018799e-02 4.73981611430644989014e-02 2.65018306672573089600e-02 3.74226644635200500488e-02 1.62412244826555252075e-02 -7.40405917167663574219e-03 1.40159053262323141098e-03 9.77727547287940979004e-02 6.09967336058616638184e-02 -7.70141109824180603027e-02 6.19288347661495208740e-02 -1.00320801138877868652e-01 3.98435583338141441345e-03 -2.71338317543268203735e-02 5.97707331180572509766e-02 -7.86046981811523437500e-02 -6.20154887437820434570e-02 3.58558110892772674561e-02 8.17290470004081726074e-02 1.64920166134834289551e-02 -8.25228318572044372559e-02 5.23721724748611450195e-02 -3.74959968030452728271e-02 3.95343713462352752686e-02 -1.63807254284620285034e-02 -6.44923299551010131836e-02 -7.28822574019432067871e-02 -5.70982582867145538330e-02 6.03792108595371246338e-02 7.68190696835517883301e-02 -1.12304762005805969238e-01 6.93476870656013488770e-02 6.67451024055480957031e-02 3.36701720952987670898e-02 6.06226474046707153320e-02 4.94086667895317077637e-02 -5.22167943418025970459e-02 9.71933975815773010254e-02 -3.18230502307415008545e-03 6.88721165060997009277e-02 8.12699273228645324707e-02 1.13839633762836456299e-01 9.66142863035202026367e-02 1.04151621460914611816e-01 1.02192841470241546631e-01 -6.94038793444633483887e-02 2.29757223278284072876e-02 -2.72984169423580169678e-02 7.95251950621604919434e-02 -9.19304341077804565430e-02 9.47536155581474304199e-02 2.62154638767242431641e-03 6.76387622952461242676e-02 -1.04101477190852165222e-02 5.23801408708095550537e-02 6.87953084707260131836e-03 6.36579766869544982910e-02 -1.04555934667587280273e-01 -4.45261271670460700989e-03 -1.05839769821614027023e-03 1.61526426672935485840e-02 1.06093622744083404541e-01 -7.11872428655624389648e-02 5.33916167914867401123e-02 2.58810576051473617554e-02 9.09302756190299987793e-03 4.57853972911834716797e-02 6.99958531185984611511e-03 -2.22098194062709808350e-02 8.74394625425338745117e-02 1.10317033249884843826e-03 -2.61797830462455749512e-02 2.05825250595808029175e-02 8.74525606632232666016e-02 1.12754978239536285400e-01 2.27181473746895790100e-03 -1.69433075934648513794e-02 1.37255728244781494141e-01 -7.11658447980880737305e-02 -5.31613714993000030518e-02 6.79017454385757446289e-02 1.50720784440636634827e-02 -7.17822015285491943359e-02 3.24977934360504150391e-02 5.95124401152133941650e-02 9.49270278215408325195e-02 -5.07071940228343009949e-03 -5.71307167410850524902e-02 -5.91686181724071502686e-02 -4.24663238227367401123e-02 3.99487882852554321289e-01 2.73920726031064987183e-02 6.33882060647010803223e-02 1.14850543439388275146e-01 -8.18379074335098266602e-02 8.83421208709478378296e-03 1.36605069041252136230e-01 -5.07235899567604064941e-02 8.24202504009008407593e-03 4.42653298377990722656e-02 -3.85037548840045928955e-02 7.05028243828564882278e-04 -4.85167913138866424561e-02 -2.55674663931131362915e-02 7.03424587845802307129e-02 5.42575083673000335693e-02 -1.00837878882884979248e-01 -9.49305966496467590332e-02 -4.32328544557094573975e-02 -1.30477875471115112305e-01 -1.32196977734565734863e-01 -2.56556961685419082642e-02 -8.24705734848976135254e-02 -6.36589080095291137695e-02 -9.45802405476570129395e-03 -3.84116284549236297607e-02 9.62932854890823364258e-02 4.75291423499584197998e-02 1.99325885623693466187e-02 1.67431905865669250488e-02 -4.60502551868557929993e-03 1.97499677538871765137e-01 -9.22498181462287902832e-02 -3.33708710968494415283e-02 -2.51408573240041732788e-02 -4.54975776374340057373e-02 -3.08064296841621398926e-02 1.17471165955066680908e-01 2.98088379204273223877e-02 4.86169531941413879395e-02 1.04692086577415466309e-01 -4.09026741981506347656e-02 9.88048464059829711914e-02 -9.07269716262817382812e-02 -4.00830619037151336670e-02 5.27821369469165802002e-02 1.09447367489337921143e-01 8.78891441971063613892e-03 1.71329677104949951172e-01 -8.05497616529464721680e-02 -4.79883253574371337891e-02 8.68051648139953613281e-02 5.25933317840099334717e-02 5.47041632235050201416e-02 -7.44171887636184692383e-02 -3.98699156939983367920e-02 1.45002961158752441406e-01 5.01586124300956726074e-02 1.03127069771289825439e-01 -3.01298294216394424438e-02 5.73662035167217254639e-02 2.81224213540554046631e-02 1.64064182899892330170e-03 1.61235228180885314941e-01 -4.85251843929290771484e-02 5.05517125129699707031e-02 1.29966810345649719238e-02 5.50685301423072814941e-02 -1.77353955805301666260e-02 -5.21116107702255249023e-02 -1.25615727156400680542e-02 -4.91691194474697113037e-03 6.32449146360158920288e-03 5.70964477956295013428e-02 5.25716468691825866699e-02 -6.81077688932418823242e-02 1.69448614120483398438e-01 6.57749548554420471191e-02 6.18438534438610076904e-02 1.17061331868171691895e-01 -4.53028678894042968750e-02 4.09324513748288154602e-03 1.26606076955795288086e-01 3.02903968840837478638e-02 1.03469612076878547668e-02 -4.89441864192485809326e-02 8.69832411408424377441e-02 -1.17155816406011581421e-02 4.57947403192520141602e-02 -2.08423715084791183472e-02 4.30567488074302673340e-02 1.14816755056381225586e-01 1.05722576379776000977e-01 1.42032548785209655762e-01 -5.32510429620742797852e-02 -6.35770931839942932129e-02 5.26366680860519409180e-02 3.46872806549072265625e-02 -1.85988191515207290649e-02 1.10327325761318206787e-01 1.39780104160308837891e-01 -5.37307374179363250732e-02 9.82598401606082916260e-03 -5.92740550637245178223e-02 -4.53355051577091217041e-02 1.14715650677680969238e-01 